<?xml version="1.0"?>
<opencv_storage>
<my_svm type_id="opencv-ml-svm">
  <svm_type>C_SVC</svm_type>
  <kernel><type>LINEAR</type></kernel>
  <C>1.</C>
  <term_criteria><epsilon>1.1920928955078125e-07</epsilon>
    <iterations>1000</iterations></term_criteria>
  <var_all>4752</var_all>
  <var_count>4752</var_count>
  <class_count>2</class_count>
  <class_labels type_id="opencv-matrix">
    <rows>1</rows>
    <cols>2</cols>
    <dt>i</dt>
    <data>
      0 1</data></class_labels>
  <sv_total>1</sv_total>
  <support_vectors>
    <_>
      -6.04660772e-06 4.70386613e-06 -3.33599496e-06 -1.05620011e-05
      -1.26649456e-05 -1.41455139e-05 -1.08355916e-05 -3.73859984e-06
      3.52174629e-06 1.65270831e-05 1.96067849e-05 1.70115291e-05
      7.12258407e-06 8.42364170e-06 -1.28763452e-06 -1.28443926e-05
      -1.03305701e-05 4.14753998e-07 9.71339341e-06 1.86351208e-05
      2.80708991e-05 3.63120671e-05 3.65033848e-05 3.11056829e-05
      3.02811404e-05 2.23982588e-05 1.53786568e-05 1.69800605e-05
      1.86704165e-05 1.31849074e-05 8.05867694e-06 -2.86813361e-06
      -1.71889842e-05 -2.29725283e-05 -1.95625089e-05 -1.28581214e-05
      -1.23024365e-05 -4.31692388e-06 2.49253276e-06 1.15294006e-05
      2.09117188e-05 2.04867138e-05 1.69100440e-05 1.53993478e-05
      1.01439136e-05 1.50817948e-06 7.49240712e-07 6.70410918e-06
      7.05726643e-06 7.05374714e-06 1.16301826e-05 7.06677929e-06
      1.45944159e-05 1.05399577e-05 -3.90899868e-06 -3.90321338e-06
      -2.44320859e-06 -4.41790962e-06 -1.45649519e-05 -1.18096896e-05
      -3.07508094e-06 2.29943498e-06 -3.87547334e-06 2.52173140e-06
      1.07417718e-05 1.34016964e-05 2.16239969e-05 2.28789067e-05
      2.74214599e-05 2.62079175e-05 2.51507900e-05 1.70363292e-05
      1.11303898e-05 8.92242679e-06 6.86061185e-06 6.46269336e-06
      -2.65556332e-06 -8.83285429e-06 -1.19051247e-05 -1.46149769e-05
      -1.34631009e-05 -4.87665739e-06 6.10459074e-06 1.61196494e-05
      1.66901136e-05 1.03547809e-05 9.54079951e-06 1.65478486e-05
      1.67743456e-05 1.81721807e-05 1.63514887e-05 1.36387516e-05
      1.30385042e-05 2.10163889e-05 2.74227805e-05 4.22496851e-05
      3.64242405e-05 2.76604533e-05 1.54197223e-05 1.06635898e-05
      6.85405303e-06 7.10535096e-06 1.43163106e-05 6.86788917e-06
      6.09988547e-06 1.28319934e-05 1.80293337e-05 2.61015593e-05
      2.23351617e-05 2.05848337e-05 1.98871294e-05 1.70265939e-05
      2.78737389e-05 2.81081029e-05 2.09409773e-05 1.89639013e-05
      2.11660245e-05 1.76684280e-05 1.49035213e-05 1.19508277e-05
      4.56086127e-06 -2.68610302e-06 -1.41962903e-06 -1.08738432e-05
      -1.85845802e-05 -1.59338651e-05 -1.93249216e-05 -1.32617724e-05
      -7.40914948e-06 -3.68797055e-06 -4.76030164e-06 -6.22307152e-06
      -5.66501740e-06 -1.01419764e-05 -1.13153110e-05 -1.21957619e-05
      -4.97726478e-06 -5.09881511e-06 1.58181524e-06 9.69432858e-06
      2.99472249e-05 1.93056167e-05 3.23781169e-05 2.78945427e-05
      1.47345072e-05 2.07718767e-05 6.12171971e-06 4.80669269e-06
      -4.89344075e-06 -3.00697934e-06 -5.06880224e-06 1.40789007e-06
      3.85347494e-06 2.31514696e-05 2.05627202e-05 2.05798260e-05
      1.61492208e-05 1.47564560e-05 5.89524370e-06 -3.36976836e-06
      -1.56494684e-06 5.73943134e-06 1.02410449e-05 1.63934619e-05
      2.75742132e-05 3.58793550e-05 3.74686279e-05 3.54577096e-05
      3.65746091e-05 3.38344435e-05 3.10702926e-05 3.09710522e-05
      2.95572572e-05 2.39231031e-05 2.38993871e-05 1.91327927e-05
      6.36818004e-06 3.12022939e-06 5.69851454e-06 8.98273720e-06
      1.23121672e-05 1.73560657e-05 2.11352071e-05 2.42584119e-05
      2.48771739e-05 2.38421271e-05 2.41807556e-05 2.35681000e-05
      1.85484841e-05 1.60187938e-05 1.40736847e-05 1.20588502e-05
      8.85694226e-06 1.43905368e-06 2.43787304e-06 5.94414587e-07
      1.34968195e-05 1.04729952e-05 3.66211293e-06 3.77408901e-06
      -4.11436758e-06 -6.27517375e-06 -1.07918768e-05 -8.86013549e-06
      -7.14584075e-06 -5.09250003e-06 -6.12946133e-06 2.74112222e-06
      4.66888787e-06 9.04321132e-06 2.00814466e-05 2.59485569e-05
      3.31689807e-05 3.09339739e-05 2.34845556e-05 1.28758184e-05
      5.90759100e-06 3.99651753e-06 -9.32770831e-07 -1.14281625e-06
      -1.37853540e-05 -1.63312561e-05 -1.76502235e-05 -1.42160306e-05
      -1.59244191e-05 -1.25083570e-05 -7.59385512e-06 -1.43042143e-06
      4.55336249e-06 9.65753912e-08 1.65712913e-06 7.01891759e-06
      9.45720330e-06 9.57719840e-06 4.72328520e-06 2.71231625e-06
      5.19870537e-06 1.35012415e-05 2.02359315e-05 3.06737711e-05
      2.57275187e-05 1.97534791e-05 1.23362661e-05 1.08204968e-05
      4.84877228e-06 5.63729100e-06 1.32924952e-05 1.04311639e-05
      1.69350824e-05 1.81475061e-05 2.01132971e-05 2.38596094e-05
      2.05093856e-05 1.94313961e-05 1.97438021e-05 2.39224737e-05
      2.26151205e-05 2.84895777e-05 2.64513765e-05 2.47231674e-05
      2.06493696e-05 2.03501604e-05 1.98630514e-05 2.33513001e-05
      2.02014453e-05 1.30193266e-05 1.29323180e-05 1.77364946e-05
      -2.40148267e-07 8.90933848e-07 2.76661558e-06 1.29866803e-05
      1.37710804e-05 1.50367014e-05 1.60833497e-05 1.56681290e-05
      1.15960893e-05 1.12742227e-05 8.60772798e-06 9.21285118e-06
      8.54362224e-06 6.97291853e-06 7.32119179e-06 1.05296394e-05
      3.01684486e-05 2.69136763e-05 4.16798102e-05 5.20207286e-05
      2.33244850e-06 1.28666045e-06 -1.85981389e-05 -1.83984885e-05
      -9.10350809e-06 -2.36121787e-06 3.37939173e-06 1.12459848e-05
      2.42476690e-05 3.23607746e-05 3.08951494e-05 2.24702271e-05
      1.56733004e-05 2.77996742e-06 -1.04446190e-05 -2.03572963e-05
      -2.27153523e-05 -2.42982551e-05 -2.36686064e-05 -1.72461023e-05
      -2.21116329e-06 -9.41419273e-07 1.00914622e-06 3.50373398e-06
      1.28475722e-06 8.44893202e-06 9.09925257e-06 6.96401958e-06
      4.69599900e-06 1.91292906e-06 2.17530783e-06 -2.36729488e-06
      3.55256043e-06 7.07800791e-06 1.47235978e-05 1.59628780e-05
      1.35049386e-05 1.32235764e-05 1.77011207e-05 2.30135283e-05
      2.77199870e-05 2.34464442e-05 2.42056394e-05 2.07032699e-05
      1.65961847e-05 1.93308915e-05 1.13896776e-05 6.18650893e-06
      -5.79537846e-06 -1.96461697e-05 -2.78026946e-05 -2.04623884e-05
      -1.06626649e-05 -9.91666457e-06 -8.36634172e-06 -4.53059329e-06
      -5.56422492e-06 -1.83124685e-05 -2.19556532e-05 -2.02372667e-05
      -2.16630451e-05 -1.90677401e-05 -9.94902439e-06 2.23515622e-06
      1.07825326e-05 1.48461404e-05 2.32637831e-05 2.62305348e-05
      2.97993502e-05 2.87118437e-05 2.19460380e-05 1.53478668e-05
      1.30817816e-05 7.63962726e-06 3.63900904e-06 -3.67812140e-06
      -1.42036042e-05 -2.29505022e-05 -2.31449885e-05 -1.71369047e-05
      -1.82467488e-06 1.13403439e-06 7.49882383e-06 9.32543117e-06
      1.43595480e-05 6.54131190e-06 7.41853955e-06 8.56722272e-06
      9.58334385e-06 1.10087931e-05 9.37091500e-06 9.68244694e-06
      1.59784267e-05 2.20622969e-05 2.61062360e-05 2.55697541e-05
      2.20368638e-05 1.56676197e-05 8.92071239e-06 1.63014556e-05
      1.06101834e-05 1.29401087e-05 1.38081787e-05 1.04976234e-05
      7.92008905e-06 7.06120863e-06 8.01399528e-06 1.17131231e-05
      1.35400469e-05 8.43221187e-06 -3.07082632e-06 -3.70965631e-06
      5.81420124e-07 4.73254158e-06 4.48073115e-06 1.85409704e-06
      -3.53830671e-08 -7.14156954e-07 -2.03483137e-06 1.80320887e-06
      1.87788301e-05 1.43069910e-05 1.51382064e-05 1.45253425e-05
      1.02646363e-05 -4.08855931e-06 -1.22805131e-05 -6.31746252e-06
      -1.25835895e-05 -1.32651412e-05 -1.19670058e-05 -1.26977884e-05
      -1.67174421e-05 -1.30530225e-05 -1.16455112e-05 -1.21141320e-05
      -4.77483945e-06 -6.40402322e-06 -1.53796500e-05 -1.84904675e-05
      -1.18264052e-05 5.05284515e-06 2.20929742e-05 3.46556517e-05
      1.69408099e-06 -2.16993135e-06 -8.19478737e-06 -1.55713897e-05
      -1.06305315e-05 -2.23076167e-05 -2.21554328e-05 3.53984660e-07
      1.93463620e-05 2.03492364e-05 2.70603159e-05 2.21247537e-05
      1.11587988e-05 -7.33056459e-06 -1.05802865e-05 -2.42417154e-05
      -3.34851720e-05 -3.61392449e-05 -3.56869168e-05 -3.28439019e-05
      -2.26267912e-05 -2.65318613e-05 -1.14525255e-05 3.77117658e-06
      1.23852487e-05 2.06912227e-05 2.15072942e-05 1.24691614e-05
      7.75496574e-06 9.22640083e-06 1.54538830e-05 1.75230944e-05
      2.80809581e-05 3.10814285e-05 4.07775697e-05 3.55714801e-05
      2.80907734e-05 2.19281883e-05 2.39826568e-05 2.81604043e-05
      3.52110801e-05 3.63312975e-05 3.82843828e-05 3.00109677e-05
      1.19597553e-05 1.07875339e-05 7.38733888e-06 -3.99729373e-07
      -6.26938890e-06 -1.66027712e-05 -2.16440276e-05 -9.54820462e-06
      4.56389017e-07 3.79074913e-06 1.63762033e-05 2.53337948e-05
      1.12472408e-05 -1.80397765e-05 -2.98293053e-05 -3.24044122e-05
      -3.20821018e-05 -2.95232330e-05 -1.61368316e-05 -7.22566665e-06
      -1.98491057e-06 1.12706869e-06 2.46789136e-06 -9.82804409e-07
      -1.67825306e-06 1.32382354e-06 3.24401162e-06 3.21679181e-06
      -5.03698311e-06 -5.30938951e-06 -3.51538688e-06 -1.11696017e-05
      -2.17525430e-05 -2.84484777e-05 -3.08654598e-05 -3.00725897e-05
      -1.80352599e-05 -1.52237326e-05 -8.76287777e-06 -3.25252108e-06
      6.72094029e-06 -2.24426390e-06 -9.81997619e-06 -1.72670407e-05
      -8.04000047e-06 -3.08543054e-06 -2.49476352e-06 4.88815158e-06
      1.37053994e-05 2.41814159e-05 2.77168783e-05 2.33023966e-05
      8.53382608e-06 -1.93305414e-06 -4.60326510e-06 1.22601273e-06
      7.57330838e-07 1.06147900e-05 1.01240528e-06 -1.54577629e-06
      4.05108904e-06 1.10946849e-05 8.07333618e-06 5.71509327e-06
      1.87799117e-06 -3.66073095e-06 -1.64777302e-05 -1.97133813e-05
      -1.39440781e-05 -9.24779943e-06 -8.52299945e-06 -1.57482918e-05
      -2.44922194e-05 -3.64125735e-05 -3.78733930e-05 -3.22016385e-05
      -3.04922924e-05 -1.28424872e-05 -4.46846616e-06 -3.13236285e-07
      3.25819997e-06 6.77411572e-06 5.29007411e-06 -3.31859587e-06
      -1.21156518e-05 -2.10762919e-05 -2.66599818e-05 -3.11207696e-05
      -3.59414698e-05 -2.80337626e-05 -1.81482737e-05 -1.53569672e-05
      -1.04270675e-05 -1.06701627e-05 -1.14233899e-05 -2.02352530e-05
      -2.56619605e-05 -3.52519066e-07 1.70507956e-05 3.18169004e-05
      1.96362225e-06 -3.70031398e-06 -1.25097076e-05 -2.24453361e-05
      -2.11824463e-05 -2.59235876e-05 -2.08938127e-05 -2.17189063e-06
      1.25529650e-05 1.87560690e-05 3.45201297e-05 2.79576980e-05
      1.04429237e-05 -2.97902807e-06 -1.44394116e-05 -3.64154293e-05
      -3.52003590e-05 -2.89960699e-05 -2.57938173e-05 -3.27916896e-05
      -3.52911266e-05 -4.57699862e-05 -2.62694230e-05 -7.38354493e-06
      1.33528874e-05 2.55451596e-05 2.52692789e-05 1.02796275e-05
      6.41294355e-06 1.00746884e-05 1.04671644e-05 4.64747473e-06
      1.42700874e-05 2.02313586e-05 2.86930299e-05 2.43104005e-05
      9.28774898e-06 1.69022587e-06 9.32772582e-06 2.05850283e-05
      3.26999434e-05 3.27487905e-05 3.55597331e-05 2.66607840e-05
      3.08740414e-06 1.86787861e-06 1.71805212e-07 -6.02117552e-06
      -1.35235887e-05 -8.37677362e-06 -2.96882808e-06 2.81962821e-06
      -3.78466757e-06 -1.13699352e-05 2.76962737e-06 1.47379351e-05
      1.35190994e-05 -1.35163227e-05 -2.23479619e-05 -2.93774374e-05
      -2.96020426e-05 -3.15977595e-05 -2.51326528e-05 -2.63247766e-05
      -1.92241514e-05 -1.53012461e-05 -2.31493177e-05 -3.33152675e-05
      -3.79669218e-05 -3.17085214e-05 -2.52320242e-05 -2.56423573e-05
      -1.73152584e-05 -1.96091678e-05 -1.42857534e-05 -1.57512186e-05
      -2.15283799e-05 -3.00958709e-05 -2.91918313e-05 -2.81466164e-05
      -2.77989238e-05 -2.26764041e-05 -1.99631140e-05 -1.76727917e-05
      -9.27020483e-06 -1.35317750e-05 -1.74475790e-05 -2.30522674e-05
      -3.42077292e-05 -3.07189657e-05 -2.76210612e-05 -1.46984939e-05
      4.53651592e-06 1.84919354e-05 1.45035001e-05 -2.58909836e-06
      -1.67679173e-05 -2.84605048e-05 -2.90276475e-05 -2.02715510e-05
      -5.09864276e-06 7.87925183e-06 -9.95013124e-07 -7.08912830e-06
      1.11383622e-06 1.81576943e-05 2.12341438e-05 8.58688963e-06
      4.42657438e-06 -1.16139236e-05 -1.65955371e-05 -2.22094495e-05
      -1.52652538e-05 -1.32816440e-05 -1.81035612e-05 -2.80897802e-05
      -3.72878349e-05 -5.17390108e-05 -5.16493892e-05 -4.71332824e-05
      -4.40203839e-05 -2.73725891e-05 -1.90036394e-06 1.10275441e-05
      1.90434675e-05 2.04987082e-05 1.67914895e-05 9.16919998e-06
      -1.84828696e-05 -3.56378332e-05 -4.05878818e-05 -4.01050711e-05
      -3.37725905e-05 -2.64606788e-05 -1.16142674e-05 -9.34005527e-07
      8.96037636e-06 5.59278305e-06 3.68360202e-06 -9.15564760e-06
      -1.39817930e-05 5.11494954e-06 9.22102754e-06 1.65776401e-05
      -4.70238820e-06 -7.79370021e-06 -1.87174483e-05 -2.77819781e-05
      -2.19750746e-05 -5.95612983e-06 -2.74667559e-06 -6.13158409e-06
      1.44151054e-05 2.10203252e-05 4.16989205e-05 2.56448311e-05
      2.61710029e-05 1.60926538e-05 1.19072843e-06 -2.03725886e-05
      -3.63175859e-05 -1.88468384e-05 -1.04161445e-05 -2.17933393e-05
      -3.44414366e-05 -4.22269877e-05 -1.39329850e-05 1.03171478e-05
      3.16315527e-05 3.56519049e-05 2.85107217e-05 1.39735403e-05
      2.03399122e-05 2.70686633e-05 2.42380793e-05 1.39520362e-05
      1.00438874e-05 1.50938831e-05 2.55330706e-05 2.28476983e-05
      5.93875438e-06 -1.24735277e-06 8.54691370e-06 2.78364787e-05
      2.44295170e-05 2.22413146e-05 1.75092282e-05 1.08732756e-05
      -1.24819171e-05 -1.78068840e-05 -1.70902786e-05 -2.15955442e-05
      -8.76127433e-06 1.36424285e-06 9.13999884e-06 1.50854521e-05
      1.04479877e-05 3.73901639e-06 1.20974037e-05 2.10969556e-05
      2.08931870e-05 -1.04348533e-06 -1.31833249e-05 -3.40617735e-05
      -3.48583126e-05 -3.73859039e-05 -3.12040975e-05 -3.83320330e-05
      -1.01352725e-05 -8.04248430e-06 -1.76553931e-05 -2.65523322e-05
      -3.00490719e-05 -3.12252487e-05 -2.70114379e-05 -2.94513320e-05
      -1.38488786e-05 -8.50465858e-06 -1.44139278e-06 -6.34884572e-08
      -2.81586949e-06 -5.80399728e-06 -2.53553617e-06 -5.94202402e-06
      -1.16346855e-05 -9.03438104e-06 -6.54241603e-06 -3.66110453e-06
      -2.94977917e-06 -8.52194626e-06 -1.53026558e-05 -2.17776778e-05
      -2.34973140e-05 -2.72153065e-05 -2.50359044e-05 3.59092780e-07
      2.58673481e-05 4.61221243e-05 3.44271393e-05 1.60352065e-05
      -9.90921762e-06 -2.31874747e-05 -2.15526325e-05 -1.06807147e-05
      7.31127147e-06 1.07366204e-05 4.38227107e-06 2.38603570e-06
      1.18031867e-05 2.97882270e-05 3.67917492e-05 2.70191522e-05
      2.79684391e-05 2.11629822e-06 -9.47880108e-06 -2.38273242e-05
      -2.21476112e-05 -1.73194185e-05 -2.51211040e-05 -3.76582866e-05
      -5.00877322e-05 -6.15781391e-05 -5.71725832e-05 -5.08367448e-05
      -3.90531059e-05 -1.81368559e-05 2.02355793e-07 2.65211002e-05
      3.81109348e-05 3.87438122e-05 2.74042668e-05 1.80567295e-05
      7.53970608e-06 -2.39841956e-05 -3.17476370e-05 -3.37378478e-05
      -2.60583620e-05 -1.26548712e-05 6.85175064e-06 2.08070633e-05
      2.02008250e-05 1.13964497e-05 8.40909252e-06 -4.50930929e-06
      -1.29456521e-05 -2.51834854e-06 -5.45390640e-06 -2.30993419e-06
      -1.06675116e-05 -1.42145036e-05 -2.80741206e-05 -3.26181398e-05
      -2.02929896e-05 1.03598522e-05 -8.04446586e-07 -4.12308646e-06
      1.30574699e-05 2.28772205e-05 3.36159610e-05 2.75291732e-05
      3.44354230e-05 3.49183647e-05 2.30286332e-05 4.22092990e-06
      -1.69249615e-05 1.25556028e-06 1.39611748e-05 1.28901056e-05
      -8.05731452e-06 -2.23645329e-05 -1.72837576e-06 2.25390286e-05
      4.71995081e-05 4.00075551e-05 2.59920180e-05 1.16965102e-05
      2.89415148e-05 4.02879305e-05 3.89932429e-05 2.80860968e-05
      2.15968357e-05 2.58287109e-05 3.62497522e-05 2.85479055e-05
      1.35075852e-05 9.43201576e-06 2.22902090e-05 4.25110156e-05
      5.39099092e-05 5.23244671e-05 4.77734247e-05 3.82227336e-05
      1.49722719e-05 9.38537687e-06 1.05252539e-05 5.58531792e-06
      3.19154174e-06 1.27848771e-05 2.07305638e-05 2.52147656e-05
      2.91293891e-05 1.97875634e-05 2.42919123e-05 3.24037319e-05
      3.74589799e-05 2.35002954e-05 1.21256262e-05 -1.61506305e-05
      -2.07321191e-05 -1.98311172e-05 -8.32376736e-06 -8.61302487e-06
      1.38198438e-05 1.87892165e-05 9.45661031e-06 4.83514896e-06
      5.09713982e-06 4.35844368e-06 3.29715704e-06 -2.14400507e-06
      3.28688679e-06 1.70781914e-05 2.01018011e-05 2.49155200e-05
      1.89535604e-05 2.36347369e-05 2.45801657e-05 1.74796842e-05
      2.17179172e-06 4.85035616e-06 1.22921438e-05 1.81691066e-05
      1.06498055e-05 -1.53667941e-06 -1.22977626e-05 -1.24965809e-05
      -1.13042306e-05 -1.45556160e-05 -1.02760441e-05 1.84529163e-05
      4.17763913e-05 6.04389570e-05 4.56903763e-05 2.87253024e-05
      2.84866724e-06 -1.08627573e-05 -1.25456527e-05 3.48207755e-06
      2.37544955e-05 2.28275876e-05 2.57119682e-05 2.89167947e-05
      4.08231463e-05 5.07068180e-05 5.04136151e-05 3.62404426e-05
      4.07884945e-05 1.38548266e-05 -2.41719431e-06 -1.71161701e-05
      -1.47354294e-05 -1.20053573e-05 -1.76889298e-05 -2.27418750e-05
      -2.95618611e-05 -3.18036618e-05 -3.54696858e-05 -3.26302870e-05
      -1.47227547e-05 1.75110983e-06 1.44398373e-05 4.01951511e-05
      4.23787460e-05 5.04401432e-05 4.05369501e-05 3.57805911e-05
      3.59246005e-05 2.35264397e-05 -1.03427055e-05 -1.30616509e-05
      -4.98639054e-07 1.61818971e-05 3.50162627e-05 4.41288066e-05
      4.01577563e-05 1.96894962e-05 1.44700971e-05 -6.21575919e-06
      -1.95474913e-05 -1.29052387e-05 1.37789739e-05 2.19755057e-05
      -7.31431192e-06 -6.18290733e-06 -3.08460876e-05 -3.81146456e-05
      -1.33500635e-05 2.72314833e-06 -4.97187693e-06 -4.61553236e-06
      4.15463956e-06 9.66401876e-06 2.54260249e-05 2.25191216e-05
      3.46661182e-05 3.65841770e-05 2.76586907e-05 1.06795642e-05
      4.75269735e-06 2.00643171e-05 4.04938437e-05 5.21257825e-05
      2.58593773e-05 -2.53877403e-07 1.31325769e-05 3.98232005e-05
      5.57839921e-05 4.15113391e-05 2.40197078e-05 8.36179061e-06
      3.14116660e-05 4.70472187e-05 5.70934390e-05 5.51744852e-05
      3.37680249e-05 3.37758502e-05 3.53815703e-05 3.37766614e-05
      2.38705088e-05 3.21326879e-05 4.05084247e-05 5.95279671e-05
      7.01566314e-05 6.91755631e-05 5.88658513e-05 4.51259075e-05
      3.03306788e-05 3.37612437e-05 3.75783493e-05 2.67722880e-05
      2.97853749e-05 3.28603710e-05 2.32204293e-05 2.16325261e-05
      2.84002745e-05 2.40447571e-05 3.34241158e-05 4.44405887e-05
      6.81079691e-05 4.94647466e-05 3.07251976e-05 -5.95167023e-07
      -3.38656992e-06 -1.43864577e-06 1.36556182e-05 1.79180643e-05
      4.92438703e-05 5.62392634e-05 4.69588012e-05 4.65366393e-05
      4.03859376e-05 3.11130825e-05 2.20111524e-05 1.93216038e-05
      1.75088844e-05 2.60961551e-05 2.83792779e-05 3.07146547e-05
      3.48564790e-05 3.49535039e-05 3.96285213e-05 2.73363639e-05
      2.86974664e-05 2.47404350e-05 2.77520430e-05 2.74588929e-05
      9.61604928e-06 -4.64168807e-06 -1.37108445e-05 -7.73411284e-06
      -5.74320802e-06 -9.78522621e-07 7.43762666e-06 3.15966281e-05
      4.59689254e-05 6.17348705e-05 5.37593696e-05 5.15478823e-05
      1.76360081e-05 2.86328918e-06 -3.42691146e-06 8.53765050e-06
      1.98224261e-05 1.43056914e-05 9.72711678e-06 9.01751173e-06
      3.56277887e-05 4.54819201e-05 4.29067331e-05 3.38877726e-05
      3.93145201e-05 2.31879221e-05 5.68572659e-06 -2.97421684e-06
      7.04627018e-06 5.48640810e-06 -1.84673570e-06 -6.19290267e-06
      -1.42769068e-05 -9.87046224e-06 -1.35717673e-05 -7.50898744e-06
      -1.47961755e-05 6.82715927e-06 2.28998724e-05 4.88908299e-05
      4.35631991e-05 4.67079881e-05 4.57487113e-05 4.98492991e-05
      5.31293626e-05 5.33062412e-05 3.63058098e-05 1.15943330e-05
      1.48359040e-05 2.86806353e-05 4.49273612e-05 3.87861983e-05
      3.29972718e-05 4.99246880e-06 1.99039988e-07 -3.39327235e-05
      -4.48340979e-05 -1.40712891e-05 1.54710215e-05 2.51942856e-05
      -1.16150350e-05 -5.28539204e-06 -3.70349189e-05 -4.00052122e-05
      -2.20896382e-05 -1.28694410e-05 -1.54476274e-05 -1.14113172e-05
      -5.25858241e-06 1.55048554e-06 1.83541379e-05 3.60501799e-05
      4.76736823e-05 5.52165220e-05 4.21797267e-05 3.03765064e-05
      -7.58520969e-07 2.28002518e-05 4.79377450e-05 6.62459861e-05
      4.26770166e-05 1.59374431e-05 3.06824513e-05 4.78024012e-05
      5.90144773e-05 4.67157079e-05 2.36248125e-05 -1.56435283e-06
      1.72262680e-05 3.06009315e-05 4.17498304e-05 3.65260275e-05
      1.69221476e-05 2.49560890e-05 1.94820404e-05 2.28000899e-05
      1.66687551e-05 2.30433288e-05 3.12287630e-05 5.20112917e-05
      6.21633517e-05 6.70788868e-05 5.93457989e-05 4.86251010e-05
      3.16757869e-05 4.34540634e-05 4.41578050e-05 3.45719272e-05
      4.02311198e-05 4.89477352e-05 4.04116363e-05 3.72090435e-05
      2.79927026e-05 3.20808940e-05 3.30882467e-05 6.47019551e-05
      8.44474271e-05 6.30873255e-05 2.99616695e-05 -1.45257882e-05
      -4.80842573e-06 6.88189039e-06 3.39526960e-05 5.28607998e-05
      6.90608867e-05 7.14420676e-05 5.95680576e-05 5.55436054e-05
      4.87415236e-05 4.13444213e-05 2.28836707e-05 2.16676308e-05
      2.10928065e-05 1.07103397e-05 1.08263685e-05 2.91242559e-05
      3.31227639e-05 3.32045202e-05 3.40087136e-05 2.97395836e-05
      4.12544578e-05 3.72888280e-05 2.09699701e-05 1.03753428e-05
      1.04825472e-06 -2.21414166e-06 -7.81295876e-06 -4.40621443e-06
      9.64377887e-06 6.03476519e-06 1.95713455e-05 3.21896005e-05
      4.81778370e-05 5.62321584e-05 4.94644482e-05 5.28332275e-05
      4.30243017e-05 3.53583782e-05 1.74795896e-05 1.59908577e-05
      1.32903369e-05 -5.83342512e-07 -5.45541161e-06 -1.37213883e-05
      -5.76304910e-06 7.86586770e-06 1.44715104e-05 7.26859480e-06
      1.31017387e-05 -7.76769411e-06 -2.06010300e-05 -2.05170181e-05
      -2.60817251e-05 -2.24167015e-05 -1.86680554e-05 -8.73296358e-06
      -6.62830871e-06 3.39830058e-06 3.07298865e-06 -6.49092499e-06
      -1.46826451e-05 -2.00770182e-06 1.57837858e-05 4.54330329e-05
      3.51727285e-05 2.62750946e-05 2.34997315e-05 4.42000273e-05
      5.65383489e-05 5.89334159e-05 3.82602302e-05 1.92714215e-05
      2.00663708e-05 3.16030091e-05 3.51863018e-05 3.86122265e-05
      1.05250710e-05 -1.64706398e-05 -3.16344340e-05 -4.78169677e-05
      -4.20645119e-05 -1.64237917e-05 1.17975969e-05 2.84385751e-05
      -5.62286777e-06 -6.22764446e-06 -2.88998999e-05 -4.09506792e-05
      -4.51554151e-05 -2.69119864e-05 -1.54183235e-05 -3.53067935e-06
      -1.30746548e-05 1.00598136e-05 2.70971886e-05 5.00183414e-05
      6.66751221e-05 6.89788722e-05 5.86177557e-05 3.18014427e-05
      2.77302775e-06 4.60603042e-06 2.04448334e-05 3.78971090e-05
      2.26772518e-05 3.34446440e-06 1.38658388e-05 2.98040723e-05
      4.17321062e-05 2.77231138e-05 3.69950044e-06 -2.90186454e-05
      -2.04352564e-05 -2.89554464e-06 1.10154861e-05 1.37801553e-05
      -1.13925198e-05 9.61200985e-09 5.44318254e-06 2.42566875e-05
      1.69152881e-05 1.74885045e-05 1.94918484e-05 3.12261764e-05
      3.19687533e-05 4.78792936e-05 5.18667293e-05 4.59943003e-05
      2.75201110e-05 4.17227529e-05 4.32074412e-05 4.07936168e-05
      5.71360833e-05 5.71892597e-05 4.63740944e-05 4.12394729e-05
      2.63502316e-05 2.14236843e-05 2.77903746e-05 7.00194723e-05
      9.92834175e-05 8.26542164e-05 4.11513392e-05 -9.14771863e-06
      -4.15835302e-07 1.98788857e-05 5.12061488e-05 7.82897405e-05
      8.25978714e-05 7.48841703e-05 6.05146779e-05 5.16066575e-05
      4.08778033e-05 2.82351302e-05 9.25692802e-06 1.19167726e-05
      1.86992220e-05 1.12165681e-05 1.63565019e-05 3.59507030e-05
      4.64365439e-05 3.60605227e-05 3.56467717e-05 3.88959670e-05
      4.26633123e-05 3.82098697e-05 1.59788269e-05 3.46799811e-06
      -3.13596092e-06 2.97473798e-06 3.92412767e-06 1.34704596e-05
      2.84996695e-05 2.74813920e-05 3.03438119e-05 3.07951013e-05
      4.17261508e-05 4.64760815e-05 4.37732415e-05 5.11254439e-05
      4.74610788e-05 4.42576311e-05 3.20215186e-05 2.60031920e-05
      5.51866742e-06 -1.94550139e-05 -3.52977295e-05 -4.96010180e-05
      -4.96258072e-05 -3.20503823e-05 -2.11610004e-05 -1.17443342e-05
      -3.17047625e-06 -1.80471907e-05 -3.29671711e-05 -2.42987608e-05
      -3.43118008e-05 -3.98317025e-05 -3.70745183e-05 -2.80017266e-05
      -9.43111354e-06 -2.21280811e-06 -1.24365158e-06 -7.46171099e-06
      -2.22946946e-05 -1.61201697e-05 2.71796489e-06 3.08145136e-05
      1.70957046e-05 1.81450969e-06 -8.09718131e-06 9.71044483e-06
      3.32386408e-05 3.79817138e-05 2.35539010e-05 1.54841234e-06
      2.22838953e-05 3.78011864e-05 2.76958453e-05 2.45221236e-05
      -5.14284875e-06 -4.07089428e-05 -4.11627479e-05 -5.82622160e-05
      -4.66608872e-05 -2.35115949e-05 9.19058493e-06 2.41054677e-05
      -1.27941837e-06 6.11551650e-06 -1.72995460e-05 -3.23716813e-05
      -4.41580087e-05 -1.56053338e-05 -8.81152630e-07 5.36594982e-08
      -1.11044492e-05 1.75089444e-05 3.77318393e-05 5.82748835e-05
      7.67118181e-05 8.17895416e-05 6.24450477e-05 3.03427842e-05
      1.64413523e-05 7.63064781e-06 1.92913176e-05 3.11923650e-05
      1.50962387e-05 2.88971205e-06 8.42661484e-06 1.69241121e-05
      1.69071918e-05 1.00382194e-05 -1.05225845e-05 -3.76420176e-05
      -2.50448411e-05 -1.37808559e-06 1.07412652e-05 1.48639738e-05
      -7.61642639e-07 4.12479585e-06 2.06208388e-05 3.72197755e-05
      3.18800412e-05 2.16649478e-05 9.18189289e-06 1.45774393e-05
      5.87150180e-06 2.51078673e-05 3.59749974e-05 3.08152048e-05
      9.10670315e-06 2.13147778e-05 1.93129799e-05 2.12008199e-05
      3.12057200e-05 4.47722923e-05 5.32923405e-05 5.20667418e-05
      2.87175008e-05 9.35840762e-06 1.75340756e-05 6.97028590e-05
      1.02447244e-04 9.14083939e-05 5.21559159e-05 -5.30466605e-06
      -3.85191879e-06 6.60552723e-06 3.01574455e-05 5.38080385e-05
      6.85681298e-05 5.43959104e-05 3.06217371e-05 1.60054078e-05
      3.58958891e-06 -1.14641143e-05 -2.17842990e-05 -1.57028735e-05
      -2.35872926e-06 -4.07814923e-06 6.65921277e-07 1.92327898e-05
      3.61818711e-05 3.08537310e-05 3.10856885e-05 3.11697404e-05
      2.99648909e-05 2.30640617e-05 -2.27159580e-06 -1.26416171e-05
      -1.52958564e-05 -5.93206823e-06 -1.22156723e-06 1.27261364e-05
      3.41996965e-05 4.03905578e-05 4.16884213e-05 3.22508204e-05
      4.44044090e-05 4.27543127e-05 4.73563487e-05 5.87961840e-05
      5.93128207e-05 4.80257295e-05 3.45009212e-05 1.62861470e-05
      -5.35542995e-06 -3.34940232e-05 -5.33162020e-05 -7.28046216e-05
      -7.85498341e-05 -4.89718695e-05 -2.89416748e-05 -1.72360706e-05
      -1.69732193e-05 -2.69433094e-05 -3.64347870e-05 -2.05787146e-05
      -3.21506268e-05 -5.38825225e-05 -5.62516689e-05 -4.64839068e-05
      -1.48592744e-05 -1.10606643e-05 -3.84045961e-06 -5.60838453e-06
      -8.89169678e-06 -7.87366480e-06 9.39065649e-06 3.35779660e-05
      1.70866406e-05 -5.32236345e-06 -1.61300177e-05 -1.02076467e-06
      1.03488455e-05 2.54967654e-05 1.28467145e-05 -5.27207567e-06
      1.69159848e-05 3.93443734e-05 3.79052108e-05 1.71005358e-05
      -2.15976270e-05 -4.58364193e-05 -5.09457313e-05 -6.49078283e-05
      -4.40966032e-05 -1.85807639e-05 1.33173253e-05 3.07426308e-05
      1.65471811e-05 2.02193569e-05 -1.64573703e-05 -2.95901318e-05
      -4.27823470e-05 -9.82055371e-06 4.60850652e-06 -1.53036490e-06
      -1.04989376e-05 1.64403446e-05 3.39033431e-05 6.17441910e-05
      8.29915516e-05 9.06813075e-05 5.54572325e-05 4.05676292e-05
      2.68472650e-05 1.69226623e-05 2.45643932e-05 2.90569969e-05
      6.81660867e-06 7.03949581e-06 1.03254588e-05 5.89829460e-06
      7.56091777e-06 8.67173640e-07 -9.77155105e-06 -3.30341354e-05
      -2.44082275e-05 3.04197738e-06 2.02055307e-05 1.90106257e-05
      3.16588057e-06 -4.26133147e-06 7.11807525e-06 7.24808797e-06
      7.50724348e-06 -3.21711536e-06 -1.77995717e-05 -1.15980711e-05
      -4.07535799e-06 9.34021591e-06 1.98117486e-05 1.93397991e-05
      3.81326254e-06 1.83818229e-05 1.54414101e-05 1.09204675e-05
      1.25066690e-05 3.26456320e-05 4.82379801e-05 4.75166671e-05
      2.11110073e-05 -7.77487730e-06 -6.60776277e-06 4.26878432e-05
      7.86995734e-05 7.90804115e-05 5.31092373e-05 -1.21199230e-06
      -1.04820474e-05 -3.90794594e-06 1.64927369e-05 3.96223913e-05
      4.90119564e-05 4.10732428e-05 1.24239223e-05 -7.53526638e-06
      -2.57903284e-05 -3.59948353e-05 -3.66142085e-05 -3.11444601e-05
      -2.67337073e-05 -2.43702889e-05 -1.90732553e-05 8.32941078e-06
      2.36261239e-05 2.24410633e-05 2.03832751e-05 1.66027930e-05
      2.02745605e-06 1.90652133e-06 -1.98896360e-05 -2.35122952e-05
      -2.47034059e-05 -7.22793402e-06 -7.17913281e-06 -4.01985318e-07
      1.28626189e-05 2.56718249e-05 2.46159307e-05 8.50117885e-06
      2.54576244e-05 3.00747233e-05 4.74266526e-05 5.75869017e-05
      4.82284267e-05 3.71176939e-05 2.93399298e-05 9.20146431e-06
      -9.77554737e-06 -3.91110734e-05 -5.97517137e-05 -7.31673426e-05
      -8.32109072e-05 -5.69658332e-05 -3.43946813e-05 -1.71246957e-05
      -1.99432616e-05 -3.50662121e-05 -3.95114221e-05 -2.24978739e-05
      -1.94811200e-05 -5.06557662e-05 -5.58141037e-05 -4.78432339e-05
      -7.06238734e-06 3.07126606e-06 1.51240392e-05 1.71381471e-05
      1.55905036e-05 1.07320484e-05 1.32295872e-05 2.79202304e-05
      8.70136228e-06 -1.66908139e-05 -2.16423159e-05 -1.26632503e-05
      -1.56485639e-05 -1.18656844e-05 -9.64591982e-06 -2.08284000e-05
      6.80053517e-06 3.03932247e-05 3.79305784e-05 3.16661062e-05
      -5.62704872e-06 -2.80149361e-05 -3.58672260e-05 -5.92242977e-05
      -3.94550989e-05 -1.52692501e-05 1.85188946e-05 3.81130194e-05
      3.08514791e-05 3.41260165e-05 -1.41845503e-05 -3.19064711e-05
      -4.08107189e-05 -1.04197461e-05 -4.60165302e-06 3.71294476e-07
      -1.47627716e-05 7.15509350e-06 2.04060270e-05 6.16933175e-05
      7.76841916e-05 8.02879804e-05 4.91953870e-05 2.95356731e-05
      2.24610976e-05 2.68160784e-05 4.04049315e-05 4.56986381e-05
      2.12916784e-05 2.59108037e-05 2.61985897e-05 9.34277432e-06
      -8.61261782e-08 -2.05120409e-06 -3.57029489e-06 -3.12721604e-05
      -2.02732535e-05 -1.77419531e-06 1.75552486e-05 2.62085814e-05
      1.05105128e-05 -1.49235257e-06 -6.18831200e-06 -1.69877385e-05
      -1.36206299e-05 -1.55487760e-05 -2.37745298e-05 -1.38509304e-05
      -1.68411698e-05 -6.15328418e-06 2.67191172e-06 6.70509053e-06
      -1.22084048e-05 -9.76544470e-06 -1.23683185e-05 -2.31355280e-05
      -1.05902373e-05 1.50310898e-05 3.17728154e-05 3.50637529e-05
      4.84753991e-06 -2.74942431e-05 -3.45117332e-05 5.96374412e-06
      3.89615197e-05 4.75254783e-05 2.88100600e-05 -2.34581912e-05
      -4.16372750e-05 -4.04390703e-05 -2.03200125e-05 2.32041111e-06
      2.33603441e-05 2.35153675e-05 -2.17866659e-06 -1.66645132e-05
      -3.56441087e-05 -4.52776403e-05 -5.10816426e-05 -5.26600015e-05
      -5.98711049e-05 -5.59663386e-05 -5.02357798e-05 -1.96909077e-05
      -1.15138419e-05 -6.28171938e-06 -3.63586332e-06 -6.22847438e-06
      -1.79933995e-05 -2.16330991e-05 -3.38065074e-05 -2.50222893e-05
      -2.84767830e-05 -1.86123052e-05 -3.17792365e-05 -2.36772248e-05
      -9.21007540e-07 1.49664329e-05 9.93796584e-06 -4.95317818e-06
      1.05834042e-05 2.30031183e-05 4.16092844e-05 4.30335022e-05
      3.78278892e-05 2.75077637e-05 2.30909081e-05 5.08264475e-06
      -3.53103269e-06 -2.93027206e-05 -4.41545417e-05 -5.16964428e-05
      -4.95744789e-05 -2.46325617e-05 -1.63246405e-05 -1.45973590e-05
      -2.40511508e-05 -3.07015725e-05 -3.06466573e-05 -3.24849025e-05
      -3.46211964e-05 -6.20019127e-05 -5.60039261e-05 -4.55429836e-05
      -7.84174608e-06 7.82477673e-06 2.04348307e-05 2.15763539e-05
      1.63808763e-05 2.06824079e-05 2.24070463e-05 3.83892693e-05
      2.17453653e-05 2.27693636e-06 7.02694297e-06 7.72249496e-06
      -5.28689816e-06 -2.32877337e-05 -3.35730474e-05 -3.46251982e-05
      -7.74469754e-06 1.04630080e-05 3.05334361e-05 2.95478512e-05
      -3.58632815e-06 -3.10067189e-05 -3.42608619e-05 -4.88683108e-05
      -4.40388867e-05 -2.26921129e-05 2.21472801e-05 4.21381555e-05
      2.91461492e-05 3.00240736e-05 -1.34115035e-05 -3.01483724e-05
      -4.51561937e-05 -3.03511060e-05 -1.53310339e-05 -8.64506728e-06
      -1.33889844e-05 5.10054178e-06 1.74146626e-05 6.14170567e-05
      6.57064520e-05 4.71461717e-05 3.00665452e-05 1.52429639e-05
      5.64824859e-06 1.85056197e-05 2.81740649e-05 4.22814519e-05
      2.64780720e-05 3.54342883e-05 3.91504691e-05 1.51394916e-05
      2.55285750e-06 -9.74837167e-06 -6.43905605e-06 -4.11847941e-05
      -3.94396520e-05 -3.37720012e-05 -8.88230079e-06 3.24326470e-06
      -1.23432183e-05 -2.38610355e-05 -3.38763130e-05 -4.31643675e-05
      -3.89066263e-05 -3.69984882e-05 -4.44245998e-05 -2.94138663e-05
      -1.87841815e-05 -5.75902550e-06 8.18421540e-06 1.44186915e-05
      -9.00414852e-06 -1.67550916e-05 -1.72762666e-05 -2.19765334e-05
      -2.22447306e-05 3.80260053e-06 1.16554902e-05 1.38758342e-05
      -1.40443080e-05 -3.82994403e-05 -4.46375343e-05 -1.14888971e-05
      1.42371373e-05 2.54026854e-05 1.20474087e-05 -2.85472888e-05
      -4.92714462e-05 -4.45899350e-05 -2.40993122e-05 -7.16188742e-06
      1.52633165e-05 2.29485395e-05 6.30213071e-06 3.72719512e-07
      -1.46780849e-05 -2.76729825e-05 -4.29482570e-05 -5.11623512e-05
      -6.46695335e-05 -6.19242855e-05 -5.60016706e-05 -1.93143933e-05
      -1.17003501e-05 3.11417807e-06 8.66864229e-06 5.45929424e-06
      -1.50973574e-05 -1.75382647e-05 -1.83351476e-05 -9.75025523e-06
      -1.36517992e-05 -4.19232902e-06 -2.48765118e-05 -2.42637252e-05
      -9.92500918e-06 8.20888908e-06 2.44219564e-06 -1.09478678e-05
      8.74941009e-08 1.99654260e-05 3.83650440e-05 3.52670686e-05
      1.92470307e-05 1.61222579e-05 1.22016572e-05 3.91696904e-06
      -1.43376235e-06 -1.92635089e-05 -3.32841264e-05 -3.72330760e-05
      -4.13684866e-05 -2.11363858e-05 -1.57052109e-05 -1.31076913e-05
      -3.02158278e-05 -4.42564633e-05 -4.04292623e-05 -4.57755705e-05
      -5.53276659e-05 -8.12182479e-05 -6.17395635e-05 -3.71006900e-05
      2.50340440e-06 2.25380336e-05 2.84173366e-05 2.21190912e-05
      1.93950855e-05 3.02345197e-05 3.48099784e-05 4.96553876e-05
      3.00877255e-05 1.58036164e-05 2.97998649e-05 3.03073248e-05
      1.49854013e-05 -3.91884123e-06 -2.12070572e-05 -2.52891150e-05
      8.47348656e-06 3.96733885e-05 5.20735230e-05 3.91625836e-05
      3.13290457e-06 -1.61997705e-05 -2.37766071e-05 -3.94355848e-05
      -4.72456522e-05 -1.98192829e-05 3.06406473e-05 4.81384959e-05
      2.83739173e-05 2.64253558e-05 -1.19156321e-05 -2.19749181e-05
      -3.90234418e-05 -4.03530830e-05 -2.10664966e-05 -1.40496668e-05
      -8.62376146e-06 2.30178989e-06 1.31945044e-05 4.04007042e-05
      3.92829388e-05 2.99353469e-05 2.26533193e-05 6.10094912e-06
      1.01748783e-05 2.04015923e-05 2.10610233e-05 3.92764123e-05
      4.05153369e-05 5.04958734e-05 5.54458202e-05 3.19908395e-05
      6.55933536e-06 -6.47074648e-06 -7.98019028e-06 -4.70217165e-05
      -4.40915064e-05 -4.38311545e-05 -1.31164306e-05 1.02452304e-05
      -1.53751375e-06 -7.97001030e-06 -1.46376724e-05 -2.34886829e-05
      -2.63631628e-05 -2.86263221e-05 -3.80605561e-05 -1.82930125e-05
      -2.04818043e-05 -5.76053435e-06 6.26700967e-07 -5.70746261e-06
      -3.00761894e-05 -3.14338431e-05 -2.75568018e-05 -2.88585943e-05
      -1.58303683e-05 8.98858889e-06 1.30595790e-05 8.31543548e-06
      -1.05824020e-05 -2.61813275e-05 -2.64159899e-05 4.44510675e-07
      2.96250855e-05 3.22940214e-05 1.28333131e-05 -2.87353851e-05
      -4.60166739e-05 -3.77738943e-05 -1.94553922e-05 -1.23735745e-05
      1.77508191e-05 3.47303467e-05 2.91594843e-05 2.58901982e-05
      1.21818039e-05 -5.57038311e-06 -2.42250771e-05 -3.58091893e-05
      -4.67412319e-05 -4.09374297e-05 -3.55591983e-05 -1.22351557e-05
      -5.14817066e-06 1.56286769e-05 2.51401434e-05 1.78211449e-05
      -3.28215924e-06 -1.06731350e-05 -1.44223368e-05 -5.30211992e-06
      -1.04030369e-05 2.52338214e-06 -2.23128682e-05 -3.11867043e-05
      -2.08465372e-05 -2.05850233e-06 -3.07047890e-06 -1.92242042e-05
      -3.42195654e-06 1.69634131e-05 3.18959719e-05 1.84012752e-05
      -2.55635928e-06 4.92693152e-06 8.29254896e-06 5.12410952e-06
      -1.30519061e-06 -1.77672446e-05 -2.04632724e-05 -1.75955356e-05
      -1.34775219e-05 3.23636385e-07 -5.56242821e-06 -1.61331100e-05
      -2.86210707e-05 -2.89140607e-05 -1.94475579e-05 -2.64392656e-05
      -4.78128968e-05 -7.45791694e-05 -5.90255149e-05 -2.41787620e-05
      1.55667294e-05 3.41540654e-05 3.68147194e-05 2.87492167e-05
      2.17523921e-05 3.28322385e-05 5.20464637e-05 7.36139336e-05
      5.46144038e-05 4.02078913e-05 5.34357932e-05 5.60278822e-05
      4.18158779e-05 2.58954624e-05 1.64118446e-05 4.54299334e-06
      4.44496982e-05 7.12521942e-05 7.44747085e-05 4.75301313e-05
      4.08923324e-06 1.34292452e-06 1.78858306e-06 -2.85330170e-05
      -3.84597879e-05 -8.04718366e-06 3.11514596e-05 4.82527685e-05
      2.63044694e-05 2.64358277e-05 -8.03722651e-06 -1.28452712e-05
      -3.92193142e-05 -2.87197199e-05 -1.19553633e-05 -9.53428844e-06
      -1.72562395e-05 -1.49242560e-05 -1.74824356e-06 2.85958122e-05
      3.91155991e-05 3.76975549e-05 2.72213383e-05 1.59340780e-05
      1.77884049e-05 2.59471635e-05 2.43714494e-05 4.53799184e-05
      5.62532659e-05 6.22616208e-05 7.02599500e-05 5.30777725e-05
      2.94936071e-05 1.58340608e-05 1.53881483e-05 -2.26804495e-05
      -2.59781373e-05 -3.35822078e-05 -5.32401145e-06 1.41596374e-05
      1.41949095e-05 1.34005504e-05 4.70098166e-06 -2.21155369e-06
      -1.05281597e-05 -1.45379354e-05 -2.59766803e-05 -7.97089888e-06
      4.23673725e-07 1.90955670e-05 1.83027605e-05 1.04994397e-05
      -6.55442727e-06 -2.64966889e-06 1.03085878e-08 -8.34374896e-06
      5.30080399e-07 3.24021094e-05 4.11926121e-05 2.09861155e-05
      -1.29100829e-06 -1.91701765e-05 -1.01990754e-05 2.30998103e-05
      4.46652048e-05 4.20450888e-05 1.86819725e-05 -1.43302896e-05
      -2.42299247e-05 -1.29298660e-05 -8.08798268e-06 -1.33271178e-05
      -1.73531021e-06 2.85272490e-05 3.75558229e-05 3.71097158e-05
      1.85153294e-05 -5.25390806e-06 -1.88866925e-05 -2.81229095e-05
      -2.04305943e-05 -1.84131095e-05 -1.56965943e-05 -9.24573578e-06
      2.54361316e-06 2.40033405e-05 4.12289010e-05 3.46503912e-05
      7.01078579e-06 5.33738387e-07 -5.49041351e-06 2.54934093e-06
      3.12142492e-06 1.80967090e-05 -8.33808099e-06 -3.00844440e-05
      -1.98130456e-05 -7.00424698e-06 -3.05313256e-06 -2.12766918e-05
      1.27006706e-06 1.24966245e-05 2.67410505e-05 1.04041446e-05
      3.14165504e-06 1.74515080e-05 2.77205145e-05 3.02223889e-05
      2.63914644e-05 8.53068559e-06 2.34373101e-06 -7.13812369e-07
      -4.68063399e-06 1.58857820e-05 1.28441234e-05 2.81705252e-06
      -1.32149444e-05 -9.87077510e-06 3.20278104e-07 7.51970447e-07
      -2.82544697e-05 -5.08113008e-05 -4.47787315e-05 -9.98890664e-06
      2.34097788e-05 3.64119478e-05 3.21463085e-05 2.35910884e-05
      2.43096292e-05 3.06969196e-05 5.83469300e-05 8.68988136e-05
      6.87851789e-05 5.01332033e-05 5.89782285e-05 6.46286571e-05
      7.58683236e-05 6.28464186e-05 6.20640494e-05 4.71030253e-05
      7.01360550e-05 7.73419160e-05 7.42090851e-05 4.58813265e-05
      2.00265185e-05 2.15457094e-05 1.50054193e-05 -1.15926878e-05
      -2.85404112e-05 2.77848335e-06 3.46867855e-05 4.32350716e-05
      3.14485987e-05 2.80253353e-05 -1.20812310e-05 -2.21662231e-05
      -3.67621687e-05 -3.02475019e-05 -1.85422268e-05 -1.24962980e-05
      -3.60573868e-05 -3.67193861e-05 -1.88605791e-05 2.29217221e-05
      4.90273414e-05 4.37729468e-05 2.89643685e-05 2.93294452e-05
      3.28432943e-05 3.59412188e-05 3.32625459e-05 5.02722614e-05
      6.42406521e-05 5.95554047e-05 6.27192567e-05 3.98163538e-05
      2.21664977e-05 1.26970244e-05 2.70499313e-05 1.24330768e-06
      -5.12857923e-06 -9.33227875e-06 3.69077611e-06 2.43725062e-05
      2.79432697e-05 2.72356247e-05 1.48352356e-05 4.85876853e-06
      4.24842256e-06 -9.02238116e-06 -1.31782854e-05 1.89902039e-06
      1.15102011e-05 3.02098961e-05 2.41232792e-05 3.81437212e-06
      -8.99814438e-07 -2.85610236e-06 1.29186155e-05 1.50710857e-05
      4.13801936e-05 6.29353162e-05 6.24618115e-05 3.14477438e-05
      -5.18751676e-06 -2.35904736e-05 -7.48101183e-06 2.72270663e-05
      4.56611306e-05 4.74288972e-05 3.46017587e-05 -9.06489731e-07
      -6.08232949e-06 3.07844493e-06 -2.46730610e-06 -7.97614393e-06
      -6.16592024e-06 2.37440581e-05 3.57656863e-05 2.61832374e-05
      5.57827263e-07 -1.29011742e-05 -1.94412223e-05 -1.26040977e-05
      -1.35723428e-06 5.88118655e-06 1.42400231e-05 5.66606832e-06
      1.82573694e-05 3.21085827e-05 4.96989705e-05 3.78018194e-05
      1.76587910e-05 -9.76812885e-07 -1.51123356e-06 -9.57405973e-06
      -4.90015691e-06 8.90917727e-06 -1.49744847e-05 -2.68655385e-05
      -2.00077629e-05 -1.73339686e-05 -1.60591935e-05 -2.16455664e-05
      1.40018869e-06 1.51782060e-05 3.20312538e-05 1.83539614e-05
      6.70628515e-06 2.38420271e-05 3.89698143e-05 3.87189903e-05
      3.38918071e-05 5.46686761e-06 -5.34836045e-06 -3.60391027e-07
      1.74540965e-05 3.09164134e-05 4.69001534e-05 1.75200421e-05
      2.43657360e-06 7.25919608e-06 1.34716802e-05 9.90621402e-07
      -1.67237504e-05 -2.55124814e-05 -2.45708488e-05 1.23314712e-05
      3.25089713e-05 3.02196386e-05 2.18124915e-05 2.40946683e-05
      2.45399242e-05 2.57261909e-05 6.48666610e-05 9.25683198e-05
      7.91256753e-05 5.91658682e-05 7.40147516e-05 7.40100295e-05
      9.18534643e-05 1.04298066e-04 7.48658204e-05 5.29744575e-05
      5.70974407e-05 5.81838285e-05 4.86604076e-05 3.14770732e-05
      9.84366397e-06 1.21628063e-05 2.25507229e-05 1.15768207e-05
      -1.04877427e-05 -7.01588760e-07 2.65862218e-05 3.82989710e-05
      3.30729090e-05 3.07451628e-05 -1.31928591e-05 -3.36129851e-05
      -4.27651830e-05 -2.80921486e-05 -1.06351827e-05 -1.17846284e-05
      -2.95609316e-05 -4.71142848e-05 -2.49506102e-05 2.52395184e-05
      4.70760388e-05 4.66621823e-05 3.48786707e-05 3.30150579e-05
      3.67908433e-05 3.67148641e-05 3.24278153e-05 4.89635422e-05
      6.27983682e-05 6.02533910e-05 6.20444916e-05 3.68596156e-05
      2.78141470e-05 2.68526765e-05 4.01008838e-05 2.31412232e-05
      1.68316492e-05 1.37280231e-05 1.67251856e-05 2.73147762e-05
      2.35605348e-05 1.53764722e-05 7.26629332e-06 6.59039097e-06
      6.75167655e-07 -1.03970315e-05 -6.37952007e-06 5.40148085e-06
      2.23255520e-05 3.03915622e-05 2.32486782e-05 -6.74618093e-07
      1.02708509e-06 2.14603710e-06 2.05343586e-05 3.18878920e-05
      6.71803937e-05 8.03591611e-05 7.15914866e-05 3.79357552e-05
      -5.58311103e-06 -2.22886592e-05 -4.83255053e-06 3.19073697e-05
      4.45306505e-05 4.88928054e-05 3.23600143e-05 -5.60941373e-07
      -1.00770494e-05 -3.62768833e-06 -1.44614232e-05 -1.83088232e-05
      -5.19539662e-06 2.15976106e-05 2.91413089e-05 1.22242736e-05
      -1.02868817e-05 -2.50542889e-05 -2.40512200e-05 -1.51446111e-05
      7.75314129e-06 1.34630191e-05 1.49753441e-05 4.03455215e-06
      1.02527238e-05 2.67539217e-05 4.89394151e-05 4.02174956e-05
      3.31698502e-05 1.00850730e-05 9.52563005e-06 -6.66247615e-06
      -1.13491396e-05 2.29637135e-06 -1.78032769e-05 -2.55255509e-05
      -2.19991070e-05 -1.50295618e-05 -1.74788984e-05 -3.01496857e-05
      -1.35144328e-05 -1.13239525e-06 2.98315990e-05 1.30867838e-05
      8.07677498e-06 3.29286922e-05 4.91814644e-05 3.72604190e-05
      1.63823970e-05 -1.39929452e-05 -1.65697002e-05 -2.90782759e-06
      2.27556357e-05 2.78987463e-05 4.46921404e-05 3.27612761e-05
      1.50623137e-05 5.22674691e-06 -2.21626874e-06 -1.29640184e-05
      -1.61209609e-05 -2.43572358e-05 -3.36004705e-05 -4.64095319e-06
      1.44169462e-05 2.59000717e-05 1.95929078e-05 2.22231392e-05
      3.04921723e-05 3.22443448e-05 6.49360591e-05 9.76724405e-05
      8.82486347e-05 5.59864420e-05 5.99603591e-05 7.25196878e-05
      1.08971646e-04 1.06650754e-04 6.93271577e-05 3.67685461e-05
      2.76556821e-05 2.63372604e-05 2.70239452e-05 2.47981261e-05
      1.56150090e-05 2.85965943e-05 3.87022010e-05 1.89751281e-05
      7.64546803e-06 6.46741864e-06 3.14062600e-05 4.29242027e-05
      4.41133307e-05 4.13252419e-05 -1.94772038e-05 -3.70883827e-05
      -4.10100001e-05 -2.16395529e-05 -2.82386827e-06 -1.79738061e-06
      -2.25984240e-05 -3.20402905e-05 -5.72879708e-06 3.41015511e-05
      4.94803717e-05 4.61401214e-05 3.89937995e-05 3.39542239e-05
      4.00988574e-05 3.84524064e-05 3.77937395e-05 5.47480704e-05
      6.45273321e-05 5.70776756e-05 4.72204956e-05 9.67477808e-06
      2.01283346e-08 2.07950343e-05 3.76226308e-05 1.87034148e-05
      1.41696346e-05 1.18228709e-05 2.78634634e-05 4.39192336e-05
      3.45370063e-05 6.63720675e-06 -1.38088299e-05 -1.05221370e-05
      -2.47386233e-05 -4.96447647e-05 -3.69923946e-05 -8.69176165e-06
      1.69755112e-05 1.81752475e-05 1.07572287e-05 -2.69927259e-05
      -2.78643056e-05 -2.65978197e-05 -1.12645807e-06 1.73133158e-05
      4.91238534e-05 5.39702523e-05 3.99700148e-05 3.74572960e-06
      -3.34376418e-05 -4.11341316e-05 -1.90591945e-05 1.73035005e-05
      3.64610969e-05 4.41949887e-05 3.09527277e-05 -1.66074187e-05
      -3.69000991e-05 -3.94959643e-05 -2.71925819e-05 -1.38140376e-05
      7.81732888e-06 2.54519127e-05 2.65289837e-05 8.24896597e-06
      -1.10682104e-05 -2.48065426e-05 -1.19784845e-05 6.40026883e-06
      8.32644491e-06 1.09458333e-05 1.39940385e-05 1.16977881e-05
      1.23053069e-05 2.87038838e-05 5.54113540e-05 5.14580242e-05
      4.17393530e-05 1.17974087e-05 3.03315824e-06 -2.33925402e-05
      -1.98612452e-05 -8.03766397e-06 -2.30085516e-05 -2.44757721e-05
      -1.88645135e-05 -1.90405153e-05 -2.70668843e-05 -3.87358014e-05
      -2.69121665e-05 -1.80798106e-05 1.82231397e-05 5.71419514e-06
      -5.02207286e-06 1.90786031e-05 3.12542325e-05 9.21823812e-06
      -2.36801261e-05 -4.96091488e-05 -4.55650115e-05 -2.84598736e-05
      1.37054221e-05 1.78207611e-05 4.17421579e-05 1.71264473e-05
      1.81653547e-06 -1.57735958e-05 -1.26357572e-05 -1.70681997e-05
      -2.07893227e-05 -2.94602178e-05 -3.73962357e-05 -8.02193790e-06
      1.86274428e-05 3.68700530e-05 2.37911045e-05 2.27282962e-05
      3.56181481e-05 4.16361363e-05 6.63134197e-05 8.60613072e-05
      5.15888278e-05 2.87785879e-05 5.04005329e-05 7.97786197e-05
      9.60251637e-05 8.94985860e-05 4.71331405e-05 1.34763050e-05
      -3.97487565e-06 2.41155931e-06 5.49395509e-06 1.08270151e-05
      6.86486692e-06 2.39120509e-05 3.03420729e-05 1.33090389e-05
      3.84589475e-06 1.41173859e-05 3.45521039e-05 4.70473497e-05
      4.50255829e-05 4.05883911e-05 -2.84154012e-05 -4.10569337e-05
      -4.22975063e-05 -2.23250881e-05 2.34568574e-06 1.37190973e-05
      -7.60114699e-06 -1.74793367e-05 2.55842951e-06 4.12186782e-05
      5.69980002e-05 4.78834118e-05 3.57569879e-05 2.35966600e-05
      2.45996325e-05 2.41088637e-05 2.53353519e-05 4.26008373e-05
      4.55280169e-05 4.26380175e-05 2.81880566e-05 -1.27973835e-05
      -1.59375068e-05 7.78110552e-06 2.39977089e-05 1.05710633e-05
      5.25722589e-06 3.53379323e-06 2.77752424e-05 4.37214840e-05
      2.53989965e-05 -1.28387524e-06 -3.05454887e-05 -3.83832412e-05
      -5.20849098e-05 -6.09413910e-05 -4.37433846e-05 -1.21117146e-05
      2.24297837e-05 1.50216347e-05 6.05742116e-06 -3.28287533e-05
      -3.11081967e-05 -2.36277156e-05 -1.09443249e-06 1.10238279e-05
      2.54437709e-05 3.35530385e-05 1.72385462e-05 -4.47470120e-06
      -2.88785050e-05 -3.39434737e-05 -3.10768737e-05 -6.88142745e-06
      1.51712848e-05 3.33743155e-05 2.51814672e-05 -3.14892859e-05
      -6.74449693e-05 -7.46432997e-05 -5.44486866e-05 -2.68854692e-05
      8.23486971e-06 2.07429293e-05 1.64285284e-05 4.83481699e-06
      -1.73140124e-05 -3.52457319e-05 -2.84718790e-05 -1.47033243e-05
      7.48531022e-07 -1.19652650e-05 -1.00034458e-05 -2.83185364e-06
      5.90867967e-06 2.66832394e-05 6.11618379e-05 5.71772107e-05
      4.60554620e-05 1.40731045e-05 -4.39720498e-06 -3.54723416e-05
      -3.00245047e-05 -2.12885479e-05 -2.80091244e-05 -2.58743894e-05
      -1.62497490e-05 -2.04045245e-05 -3.29113318e-05 -3.76673124e-05
      -2.77298477e-05 -2.40143254e-05 -2.58628660e-07 -1.09178782e-05
      -2.60569577e-05 -6.70263216e-06 8.54039899e-06 -7.68937662e-06
      -4.39021605e-05 -7.21470497e-05 -6.17469850e-05 -3.90839887e-05
      -9.09006030e-06 1.42779470e-06 2.24999239e-05 1.71291526e-06
      -1.24893786e-05 -2.74722915e-05 -2.54147089e-05 -2.46697073e-05
      -4.14865754e-05 -5.04080781e-05 -5.26608892e-05 -3.22947344e-05
      -3.53358678e-06 1.66652571e-05 1.53996189e-05 2.56338644e-05
      2.95906539e-05 4.41610391e-05 6.11247524e-05 6.45305481e-05
      3.38536702e-05 1.74949819e-05 3.31138472e-05 5.37037231e-05
      7.79616748e-05 6.89379231e-05 3.25050532e-05 -1.21173280e-05
      -2.57197662e-05 -2.79880055e-06 1.09332786e-05 1.37220031e-05
      7.47871411e-07 1.60047477e-06 1.53784749e-05 2.02439310e-06
      -7.46822889e-06 6.75732963e-06 3.76570461e-05 5.18672678e-05
      3.55293450e-05 2.94913971e-05 -2.76062674e-05 -4.06636063e-05
      -4.34124486e-05 -2.50715693e-05 1.94985068e-06 1.30060298e-05
      2.38952737e-07 4.35151151e-06 1.51990007e-05 3.82864455e-05
      4.33735986e-05 3.52634343e-05 2.50471039e-05 2.66290808e-05
      2.12270188e-05 3.03957113e-05 3.52576499e-05 4.13967646e-05
      2.49430996e-05 1.38921159e-05 2.69108477e-06 -3.07113696e-05
      -5.12702063e-05 -2.96811140e-05 -1.54003574e-05 -1.51419154e-05
      -1.07957394e-05 1.44417061e-06 2.55743871e-05 3.58294710e-05
      1.07007645e-05 -2.69346019e-05 -5.37665073e-05 -5.78907020e-05
      -6.73027535e-05 -7.21059405e-05 -5.64158872e-05 -2.10446779e-05
      1.40295151e-05 1.01109326e-05 -1.83086308e-06 -4.24801838e-05
      -4.83002586e-05 -3.60504382e-05 -1.03231032e-05 -8.02106172e-07
      6.79120740e-06 6.39768314e-06 -1.38929317e-05 -2.71297631e-05
      -3.10811447e-05 -3.32458476e-05 -3.06655238e-05 -8.10075926e-06
      1.85196604e-05 3.26677946e-05 9.56549775e-06 -4.51329615e-05
      -8.71266166e-05 -8.40884240e-05 -6.04327433e-05 -2.39383407e-05
      6.30258728e-06 1.84279706e-05 9.01848125e-06 9.86774353e-07
      -2.14357406e-05 -2.95739665e-05 -2.72104044e-05 -2.04531334e-05
      -1.40758921e-05 -3.54051808e-05 -2.96078560e-05 -1.44862261e-05
      -5.08822632e-06 2.01639486e-05 5.59196014e-05 5.39352368e-05
      4.84643715e-05 2.00903341e-05 -2.70001760e-06 -3.30763614e-05
      -4.49053150e-05 -3.51309100e-05 -2.50780740e-05 -1.44644746e-05
      4.90912726e-07 6.64928521e-08 -1.55992548e-05 -2.02648498e-05
      -6.96956249e-06 4.88510886e-06 1.53417695e-05 1.05061599e-05
      -4.51010419e-06 1.06998232e-05 2.18023179e-05 1.44607486e-06
      -3.02400076e-05 -6.21502040e-05 -6.87460924e-05 -6.83780963e-05
      -4.00416175e-05 -1.39969425e-05 8.59318880e-06 -1.62769775e-05
      -3.66850654e-05 -4.71977837e-05 -3.35768564e-05 -1.92417392e-05
      -2.39884466e-05 -3.74716328e-05 -4.45883088e-05 -3.96606956e-05
      -2.17798079e-05 -6.59471107e-06 -9.56730582e-06 -2.14575198e-06
      -5.54180451e-06 2.75872026e-05 4.03609156e-05 4.62934477e-05
      2.53192793e-05 8.87122405e-06 2.14954543e-05 5.13355481e-05
      6.11727228e-05 4.67178179e-05 2.00935574e-05 -2.48135293e-05
      -2.47850858e-05 -1.04275578e-05 1.17893442e-05 1.03241628e-05
      -1.16223391e-05 -2.57748234e-05 -1.55136349e-05 -2.24579107e-05
      -2.77281270e-05 -6.23634605e-06 2.50535340e-05 3.92253169e-05
      3.66086279e-05 2.66221359e-05 -1.89182283e-05 -2.75571438e-05
      -3.49742259e-05 -2.20570710e-05 1.21731034e-06 9.55423639e-06
      -4.38711731e-06 3.70462521e-06 2.54523729e-05 5.70784068e-05
      6.88534274e-05 4.64149525e-05 1.96755809e-05 2.70596811e-05
      2.07105004e-05 3.44557993e-05 4.78571055e-05 3.56874225e-05
      1.34483798e-05 -1.12533098e-05 -1.02311351e-05 -3.68120818e-05
      -3.84347404e-05 -2.46169602e-05 -2.69825955e-06 1.08365912e-05
      1.08233371e-05 9.47806984e-06 2.54055594e-05 3.09071220e-05
      1.09659968e-05 -2.39106284e-05 -3.71038623e-05 -4.71250241e-05
      -5.83054716e-05 -5.78588879e-05 -3.66334971e-05 -4.85777991e-06
      2.24771265e-05 1.85325316e-05 -1.23737198e-06 -3.97976255e-05
      -5.05692842e-05 -3.67072280e-05 -1.07359947e-05 -3.54161148e-06
      1.98790576e-06 -1.75540640e-06 -1.24427061e-05 -1.38101868e-05
      -9.06835612e-06 -1.17684322e-05 -6.65044945e-06 2.04854405e-05
      4.61609779e-05 4.69432234e-05 1.63724781e-05 -4.06019099e-05
      -7.02988618e-05 -6.74704133e-05 -4.53714929e-05 -1.28865486e-05
      1.07975102e-05 2.47158969e-05 8.68474945e-06 -6.38088613e-06
      -2.99637450e-05 -2.44679668e-05 -1.81501546e-05 -1.26158575e-05
      -1.80124243e-05 -4.33113310e-05 -3.66366949e-05 -3.18597158e-05
      -2.11726747e-05 9.28925056e-06 4.74391163e-05 4.27464256e-05
      3.93373884e-05 1.71998763e-05 -3.62341416e-06 -3.51962190e-05
      -5.12205370e-05 -4.41758893e-05 -2.62225567e-05 -8.86732232e-06
      1.09673292e-05 1.79639319e-05 6.33851869e-06 -1.14886416e-06
      8.09913035e-06 1.93089090e-05 1.40932962e-05 1.40575739e-05
      1.87479473e-05 2.95525933e-05 3.50884839e-05 1.46981283e-05
      -1.56417973e-05 -5.05181342e-05 -5.16045038e-05 -4.16203184e-05
      -2.45330084e-05 -8.27706117e-06 3.85736939e-06 -1.53798574e-05
      -2.68571930e-05 -3.57565295e-05 -1.52570146e-05 6.33597756e-06
      -7.74483487e-06 -2.36739379e-05 -4.33342066e-05 -6.22519292e-05
      -7.13115296e-05 -5.65373921e-05 -4.24930804e-05 -1.52255789e-05
      -8.06515618e-06 2.35333919e-05 3.11867734e-05 5.19025125e-05
      3.20186882e-05 1.71857391e-05 2.08214478e-05 3.62754108e-05
      4.98577792e-05 3.62469727e-05 3.64530092e-06 -1.90252194e-05
      -1.62301039e-05 -3.00101533e-06 1.28361116e-05 2.84853127e-06
      -2.86291852e-05 -4.75526103e-05 -4.06921645e-05 -5.34889405e-05
      -4.34955036e-05 -1.81071682e-05 1.67885319e-05 2.61702644e-05
      3.60572194e-05 1.83865450e-05 -2.31797621e-05 -2.79431406e-05
      -2.80551976e-05 -2.15077343e-05 -6.82709833e-06 2.15813657e-06
      -3.59521641e-06 5.47789159e-06 3.05909234e-05 6.76261188e-05
      9.02128959e-05 6.25512621e-05 3.09044699e-05 3.72296090e-05
      4.32473389e-05 5.99931227e-05 6.72160459e-05 5.07369041e-05
      2.20816455e-05 3.39657254e-06 6.67693894e-06 -1.09777784e-05
      -1.27347030e-05 -3.63072922e-06 1.57381201e-05 2.48570577e-05
      2.69093671e-05 5.80749884e-06 1.86213128e-05 1.88723989e-05
      3.92872198e-06 -1.70090971e-05 -2.05283613e-05 -3.30171679e-05
      -3.82139006e-05 -3.25771252e-05 -7.34042624e-06 1.40725033e-05
      2.32718612e-05 2.02005522e-05 1.43595162e-06 -2.45437695e-05
      -3.33748139e-05 -2.61257737e-05 2.70517057e-06 1.34410484e-05
      4.29869897e-06 -5.52190340e-06 -8.94312507e-06 -1.36242261e-05
      -4.97899828e-06 -9.53267943e-07 1.75705700e-05 5.03963747e-05
      7.64170982e-05 7.03369806e-05 3.43504835e-05 -1.85892386e-05
      -3.71729257e-05 -3.07210539e-05 -1.33723915e-05 1.03653128e-05
      3.16806691e-05 4.80854433e-05 3.06923685e-05 9.15009150e-06
      -1.98321140e-05 -1.52286802e-05 -1.29532255e-05 -1.12603484e-05
      -2.60127545e-05 -4.88888763e-05 -3.90448295e-05 -3.64340776e-05
      -3.13400633e-05 -7.69926919e-06 2.66664993e-05 2.92119239e-05
      3.11098411e-05 1.35831770e-05 -1.99848705e-06 -3.88437365e-05
      -4.86450954e-05 -3.98459888e-05 -2.14918073e-05 -2.32162688e-06
      3.20882391e-05 4.14829556e-05 2.54890692e-05 1.58413568e-05
      1.80640764e-05 2.82097262e-05 2.55628602e-05 3.24429093e-05
      4.49255131e-05 5.93098812e-05 5.56033738e-05 3.65879023e-05
      4.30197997e-06 -2.76340215e-05 -3.32279524e-05 -2.26902612e-05
      -8.31734087e-06 1.04150149e-05 5.31489013e-06 -1.60043874e-05
      -3.33187272e-05 -3.35956975e-05 -1.32124342e-05 8.98848975e-06
      4.77231242e-06 -2.33406845e-05 -5.30953221e-05 -6.56208140e-05
      -7.04749909e-05 -5.63907306e-05 -4.61430209e-05 -3.08411363e-05
      -9.96298149e-06 2.58424043e-05 3.63488325e-05 6.05406203e-05
      4.08724845e-05 3.32939453e-05 4.25540275e-05 4.99934613e-05
      6.03071130e-05 3.78226468e-05 5.12019733e-06 1.86991815e-06
      -1.40956189e-07 1.48769705e-05 1.64820540e-05 -9.28015311e-07
      -3.93830924e-05 -5.18346824e-05 -4.50786792e-05 -6.03665940e-05
      -5.14685016e-05 -2.83684931e-05 1.47783712e-05 2.77467843e-05
      3.49999063e-05 1.41053524e-05 -2.39954861e-05 -3.78011791e-05
      -2.85737460e-05 -2.52555055e-05 -9.51473066e-06 9.99212989e-06
      5.93318555e-06 9.81840094e-06 2.92729383e-05 7.06826031e-05
      8.83411776e-05 7.26125800e-05 5.44422619e-05 5.68286305e-05
      6.31822477e-05 7.08565785e-05 6.16300895e-05 2.90055486e-05
      4.95034010e-06 -3.06423715e-07 1.73971675e-05 1.15240846e-05
      6.37842641e-06 1.24428643e-05 2.75422844e-05 3.31110277e-05
      3.77514953e-05 5.73331954e-06 1.79358449e-05 1.45124950e-05
      -1.61982518e-06 -2.32699531e-05 -2.61177083e-05 -2.74991526e-05
      -9.82200345e-06 -8.92603111e-06 6.91689320e-06 1.73099834e-05
      2.39820256e-05 2.09868085e-05 2.70052351e-06 -1.05878125e-05
      -1.46501889e-05 -1.40645525e-05 7.20933031e-06 1.26788518e-05
      -4.20896504e-06 -1.77102320e-05 -1.67096787e-05 -2.00421764e-05
      -7.98774090e-06 1.59752335e-06 2.85544174e-05 5.53558530e-05
      7.80956325e-05 7.58331589e-05 3.97245567e-05 -2.26659063e-06
      -2.53261351e-05 -2.27728506e-05 -1.84664095e-05 -3.02807825e-06
      1.64791745e-05 3.61188140e-05 2.80903860e-05 1.53396813e-05
      -7.91654475e-06 -8.96708934e-06 -1.05854006e-05 -1.34918837e-05
      -2.78854277e-05 -4.66481615e-05 -3.57687895e-05 -3.43722786e-05
      -3.00594711e-05 -1.35482805e-05 1.37234783e-05 1.67125672e-05
      1.72246237e-05 4.75042771e-06 9.37727464e-07 -3.22771739e-05
      -4.71493731e-05 -3.57977297e-05 -2.38375069e-05 -6.20448873e-06
      6.19054799e-06 2.44910989e-05 1.30069720e-05 1.03632601e-05
      9.28369082e-06 1.65269994e-05 1.33041876e-05 1.52670709e-05
      2.58068376e-05 4.46727281e-05 3.47091445e-05 2.21565715e-05
      -2.88138108e-06 -2.20940219e-05 -2.26179473e-05 -1.87326282e-06
      1.20452260e-05 2.51841866e-05 1.46035181e-05 -1.20360046e-05
      -2.48073648e-05 -3.03111865e-05 -1.68799470e-05 -1.02289539e-06
      -2.58589330e-06 -2.59462013e-05 -5.69575968e-05 -6.41564184e-05
      -6.99614611e-05 -6.28278358e-05 -5.25928735e-05 -4.47708626e-05
      -1.06120442e-05 2.72914804e-05 3.24738867e-05 5.67535135e-05
      3.54035255e-05 3.77005272e-05 4.92796571e-05 6.52335148e-05
      7.33163470e-05 4.44730758e-05 2.50670601e-05 1.17908803e-05
      1.09242828e-05 2.30621263e-05 1.11192940e-05 -9.76152933e-06
      -3.02358621e-05 -3.79982157e-05 -3.37228776e-05 -5.15807005e-05
      -5.66503222e-05 -3.45715816e-05 1.11275413e-05 2.40217523e-05
      3.14859462e-05 1.77789916e-05 -3.13098935e-05 -4.38121424e-05
      -3.20265790e-05 -3.38395075e-05 -3.17398280e-06 1.75500572e-05
      2.17207453e-05 3.05136273e-05 4.39223040e-05 7.19760792e-05
      8.58290514e-05 7.74923683e-05 6.28345661e-05 6.34528915e-05
      7.25420177e-05 7.58990209e-05 5.81281056e-05 1.74743400e-05
      -7.72884687e-06 -6.29830492e-06 1.26238265e-05 3.73597982e-06
      -3.31328260e-06 1.14060049e-05 2.71966674e-05 2.61430232e-05
      3.09554780e-05 8.13563383e-06 8.52461471e-06 1.25260949e-05
      -3.52980663e-07 -1.79481231e-05 -1.68099687e-05 -1.52796820e-05
      -1.43334910e-05 -6.50386653e-07 5.57593057e-06 -8.75987280e-06
      9.32317107e-06 1.35539494e-05 1.10808060e-05 1.34838092e-05
      1.73034641e-05 1.94310287e-05 2.47947828e-05 2.47398311e-05
      6.81078427e-06 3.06794891e-06 -5.98102906e-06 -2.76792980e-06
      1.45045478e-05 1.42891695e-05 4.02869482e-05 4.65433914e-05
      7.42970078e-05 6.40192375e-05 4.79261544e-05 3.66661902e-06
      -1.28780712e-05 -2.21499504e-05 -1.71157280e-05 -1.84490109e-05
      -6.99718657e-06 1.03913599e-05 1.84740165e-05 8.09513858e-06
      -2.17855722e-05 -2.57010943e-05 -2.16335229e-05 -1.99437181e-05
      -1.83568718e-05 -2.64520859e-05 -1.52560415e-05 -1.66684022e-05
      -2.03949949e-05 -1.35205237e-05 8.32164278e-06 2.18940331e-05
      1.77856982e-05 5.48980825e-06 2.10835447e-06 -1.74304096e-05
      -2.98783834e-05 -3.10211763e-05 -2.15896307e-05 -1.24771886e-05
      -8.10001166e-06 -1.04759783e-06 -9.96649578e-06 -9.88382635e-06
      2.08096617e-06 5.11816643e-06 1.19497772e-05 2.14583833e-05
      2.84658818e-05 3.43652755e-05 1.84158380e-05 7.88324814e-06
      -4.78810534e-06 -2.77379677e-05 -2.37207823e-05 -1.54672871e-05
      -3.80700976e-06 9.12213466e-07 -7.02513398e-06 -2.61065306e-05
      -3.95904899e-05 -4.16104558e-05 -4.14398201e-05 -2.37635268e-05
      -3.39798062e-05 -4.59947769e-05 -6.85523701e-05 -6.35839242e-05
      -4.82646465e-05 -4.98630106e-05 -4.97206129e-05 -5.24478273e-05
      -2.98369105e-05 -7.40866540e-07 1.82336462e-05 4.34594658e-05
      3.26284862e-05 3.30386392e-05 4.15658324e-05 4.81314455e-05
      6.05926652e-05 3.93543742e-05 1.54926274e-05 6.13401880e-06
      -1.73084334e-06 1.07678170e-05 1.20284876e-05 6.50292441e-06
      -4.91052788e-06 -6.93998300e-06 -1.32041923e-05 -3.92611291e-05
      -5.76025013e-05 -4.09047061e-05 1.42083391e-05 2.65634262e-05
      3.28036440e-05 1.45026279e-05 -3.37280944e-05 -4.30449036e-05
      -3.20396102e-05 -3.17778286e-05 -6.49060485e-06 1.23326381e-05
      2.73833630e-05 4.13822454e-05 5.07656951e-05 6.86765634e-05
      6.89503140e-05 5.43890783e-05 3.85406674e-05 3.27726848e-05
      3.48199464e-05 5.05999888e-05 5.05942626e-05 2.30009573e-05
      -1.12584503e-05 -6.76722493e-06 1.05087965e-05 2.38094708e-06
      -1.68410497e-05 -2.74608919e-06 1.57729828e-05 1.05886693e-05
      1.27513022e-05 3.03414708e-06 9.12535961e-06 1.06979105e-05
      3.65249070e-06 -1.84772653e-05 -1.82073345e-05 -3.93021264e-06
      5.94968128e-07 1.01816049e-05 5.71462078e-06 4.40483836e-06
      1.30503731e-05 2.45817137e-05 2.96733524e-05 3.88356093e-05
      3.64181469e-05 2.50441517e-05 2.62719641e-05 2.80820768e-05
      7.11268967e-06 5.99456689e-06 -9.55489696e-08 1.47389901e-05
      3.49087750e-05 4.09095992e-05 4.89397571e-05 3.98845114e-05
      5.69967597e-05 4.56949965e-05 2.75030379e-05 3.40864813e-06
      -7.76755041e-06 -9.03701493e-06 -1.67759918e-05 -2.22759882e-05
      -2.12509858e-05 -1.59537522e-05 -1.63820350e-05 -1.96593955e-05
      -4.01403086e-05 -4.84071279e-05 -5.05530261e-05 -4.62302341e-05
      -2.90523767e-05 -2.93472385e-05 -2.09511018e-05 -2.48466313e-05
      -3.03570159e-05 -1.98584712e-05 -1.45005674e-06 1.07490405e-05
      6.39592417e-06 -8.69518499e-06 -1.18767985e-05 -1.85562585e-05
      -2.13325184e-05 -2.26378725e-05 -1.75213754e-05 -1.29422251e-05
      -1.07357364e-05 -1.15984967e-05 -2.64857881e-05 -2.08032197e-05
      -7.46209435e-06 -8.47190051e-07 1.36619838e-05 2.91283250e-05
      4.14806345e-05 2.77964809e-05 1.95727466e-07 -1.33123449e-05
      -1.82721415e-05 -3.32614836e-05 -2.09096524e-05 -1.95147331e-05
      -1.01446994e-05 -2.91591687e-06 -1.65440179e-05 -3.95186034e-05
      -4.99706875e-05 -4.95915410e-05 -4.91417049e-05 -5.19611312e-05
      -4.80407725e-05 -5.11696417e-05 -6.20640058e-05 -5.36467633e-05
      -4.19617718e-05 -4.20908145e-05 -5.56557679e-05 -6.50816437e-05
      -4.48925493e-05 -5.27677594e-06 1.99662245e-05 3.41063678e-05
      2.58341788e-05 2.02294723e-05 2.88969532e-05 4.03513222e-05
      3.94960771e-05 2.76231840e-05 4.74432636e-06 1.34596121e-07
      4.35650190e-06 2.53106973e-05 3.61137754e-05 3.10499454e-05
      1.75183868e-05 1.26756931e-05 6.47611955e-08 -2.84630423e-05
      -4.70966879e-05 -4.14661008e-05 1.11394056e-05 2.40393729e-05
      2.60280194e-05 5.44411159e-06 -4.06613399e-05 -4.95592903e-05
      -3.77209872e-05 -3.08245726e-05 -1.62298238e-05 -3.38725522e-06
      1.30399640e-05 2.87902731e-05 4.37607669e-05 5.97368416e-05
      5.03583433e-05 2.75036509e-05 2.57764827e-06 -9.21507944e-06
      4.51288224e-06 1.34839029e-05 2.44901876e-05 1.13148189e-05
      -1.14731147e-05 -1.18267035e-05 2.45370956e-07 -9.37122968e-06
      -1.47606106e-05 -1.83010270e-05 -1.53786405e-05 -1.66940499e-05
      -9.76776573e-06 4.94490109e-07 1.66167229e-05 1.91574381e-05
      1.33610356e-05 -1.30506924e-05 -2.25844415e-05 -2.10445905e-05
      -1.46818493e-05 -1.19176821e-05 -1.22416004e-05 -1.24207927e-05
      -3.86445754e-06 1.63199002e-05 3.45455337e-05 5.14716230e-05
      3.99261226e-05 3.23436579e-05 2.67494652e-05 2.61278037e-05
      3.47852915e-06 2.48887719e-08 1.38642019e-06 1.64397497e-05
      4.17419469e-05 4.55990121e-05 3.48410540e-05 1.63584355e-05
      2.36946344e-05 9.55447285e-06 -5.25569112e-06 -1.22126594e-05
      -8.22373659e-06 -1.30254275e-05 -2.31556060e-05 -2.77591225e-05
      -3.06718903e-05 -3.05086051e-05 -3.17004888e-05 -2.81488828e-05
      -4.05604405e-05 -5.34473438e-05 -5.90408672e-05 -5.06755969e-05
      -2.70612873e-05 -2.20368620e-05 -1.23001846e-05 -1.54951958e-05
      -1.85980716e-05 -1.13487613e-05 7.92818810e-06 2.09983518e-05
      1.85442186e-05 8.47432432e-07 -1.21310086e-05 -1.62954111e-05
      -1.50982105e-05 -1.10666178e-05 -2.67244536e-06 7.08561856e-06
      9.91559136e-06 3.51700493e-07 -2.19315370e-05 -2.38490538e-05
      -1.33790345e-05 -5.35601839e-06 1.80609622e-05 3.99556484e-05
      4.98968911e-05 2.51262318e-05 -4.99490443e-06 -2.15032414e-05
      -1.52848916e-05 -1.67001199e-05 -6.24901213e-06 -7.55229530e-06
      -1.26137147e-05 -9.04840272e-06 -1.98111211e-05 -3.96535797e-05
      -5.27869925e-05 -5.32903978e-05 -5.04329655e-05 -5.38098902e-05
      -5.87524337e-05 -5.28328492e-05 -5.82842367e-05 -4.57770475e-05
      -3.25862238e-05 -2.75950115e-05 -5.26786862e-05 -6.33692980e-05
      -4.40461117e-05 4.49682966e-06 2.88842166e-05 3.03714587e-05
      2.52557529e-05 1.39554922e-05 1.16901974e-05 2.09593509e-05
      1.08608519e-05 1.61360640e-05 1.21892990e-05 1.13805027e-05
      2.22819090e-05 4.47156199e-05 5.83425899e-05 5.00612259e-05
      2.56622516e-05 1.55720827e-05 -2.26533621e-06 -3.08652707e-05
      -4.99511007e-05 -4.91373830e-05 3.48508678e-07 1.65181682e-05
      2.55809955e-05 9.75846524e-06 -3.27319613e-05 -4.64378827e-05
      -4.25099024e-05 -2.71440931e-05 -1.26654422e-05 2.08502775e-06
      2.65193921e-05 4.19176395e-05 5.39872817e-05 6.48312925e-05
      4.87023972e-05 2.10317794e-05 -8.53525944e-06 -1.94305212e-05
      -3.09660618e-06 9.40020345e-06 1.00779152e-05 4.43685940e-06
      -2.98336090e-06 -5.36127163e-06 -8.38670189e-07 4.47137882e-06
      -7.66978883e-06 -1.57732156e-05 -2.15274904e-05 -1.81877404e-05
      -1.58828661e-05 1.65805488e-06 1.74600264e-05 1.72487980e-05
      5.89933143e-06 -1.80075767e-05 -3.51185918e-05 -3.31841802e-05
      -2.78497355e-05 -1.92655261e-05 -9.92281730e-06 -1.15621469e-06
      1.82478038e-06 5.16327282e-06 1.96957390e-05 2.54324132e-05
      1.83734774e-05 1.57264476e-05 1.87157020e-05 1.97874106e-05
      1.06967218e-05 1.44982971e-06 -5.78961726e-06 1.44966098e-05
      4.27473860e-05 3.98298980e-05 3.21516054e-05 1.92693569e-05
      2.38756420e-05 2.12584819e-05 5.89739193e-06 9.92510536e-08
      -5.64247193e-06 -8.16050942e-06 -1.75891746e-05 -1.48593690e-05
      -2.33159208e-05 -2.32071670e-05 -2.24798659e-05 -2.26051488e-05
      -2.80627992e-05 -4.09658787e-05 -4.52571367e-05 -3.62347164e-05
      -2.32613820e-05 -2.38655430e-05 -1.77034726e-05 -1.81522119e-05
      -1.44783553e-05 -1.23062446e-05 9.99634722e-06 2.41549042e-05
      2.55138220e-05 1.08339809e-05 -2.88834417e-06 -1.09702469e-05
      -1.58025668e-05 -9.42496081e-06 3.96535779e-06 2.44890143e-05
      3.61823768e-05 2.97100814e-05 1.51937775e-06 -8.75126534e-06
      -1.00972347e-05 -7.19075388e-06 7.97034136e-06 1.98981106e-05
      1.94315071e-05 -1.50085395e-06 -2.05530469e-05 -3.07848604e-05
      -2.29171383e-05 -1.82872645e-05 -1.38414289e-05 -1.32454416e-05
      -1.30300878e-05 -1.48823228e-05 -1.97448189e-05 -3.85804597e-05
      -5.43111782e-05 -5.66730268e-05 -4.87058023e-05 -4.27824052e-05
      -5.75707709e-05 -4.50638327e-05 -4.54387373e-05 -3.00128977e-05
      -2.52709960e-05 -3.42218809e-05 -5.09576566e-05 -4.98284971e-05
      -2.21274113e-05 6.06504045e-06 2.84363323e-05 2.08305810e-05
      1.79018548e-06 9.81308517e-07 1.75905245e-06 -8.10643724e-06
      3.72558588e-06 1.54002355e-05 1.97566878e-05 1.45578269e-05
      2.32217408e-05 4.50373955e-05 5.35066429e-05 3.94913441e-05
      2.19968988e-05 1.24973049e-05 -6.83195321e-06 -3.17872800e-05
      -5.04391064e-05 -4.39004834e-05 1.69743714e-06 1.91104773e-05
      2.48455053e-05 7.33260276e-06 -3.29793620e-05 -4.70536106e-05
      -4.52460044e-05 -2.91897286e-05 -2.02589636e-05 -9.95254504e-06
      1.04129222e-05 2.47819826e-05 3.21793013e-05 4.14128954e-05
      2.83930258e-05 8.34978073e-06 -1.27279973e-05 -1.53744786e-05
      -8.22098082e-06 -5.64270431e-06 8.71946304e-06 5.71546798e-06
      -8.38934193e-06 -2.68778276e-05 -1.24663038e-05 -4.52298445e-06
      -9.38987341e-06 -1.24887165e-05 -1.23957152e-05 -1.55101225e-05
      -2.16935441e-05 -4.97844667e-06 1.55983034e-05 3.06357360e-05
      1.94084096e-05 6.37902485e-06 -1.18369762e-05 -1.07743344e-05
      -9.92112837e-06 8.66226583e-06 1.60762647e-05 2.38924513e-05
      2.90407388e-05 2.53839244e-05 2.11931492e-05 1.62805554e-05
      8.26372707e-06 1.87849400e-05 2.66612478e-05 4.20208271e-05
      3.40567603e-05 3.10124524e-05 2.70215987e-05 2.55314681e-05
      4.54347901e-05 4.63359283e-05 4.06580184e-05 3.05190770e-05
      2.31596441e-05 2.20648308e-05 1.48230274e-05 9.32643343e-06
      7.69864619e-06 -1.11174450e-06 -5.52847723e-06 -2.23016605e-06
      -2.99235580e-06 -2.61303308e-06 6.29574572e-07 -4.43398812e-06
      -1.35657820e-05 -3.23505265e-05 -3.64856642e-05 -2.55844207e-05
      -1.79521958e-05 -2.30613896e-05 -2.00572667e-05 -2.09977316e-05
      -1.87148507e-05 -1.72627479e-05 1.43821126e-06 1.73672652e-05
      1.86887610e-05 7.64091783e-06 -3.03151955e-06 -1.33727663e-05
      -1.88733138e-05 -8.31784109e-06 -1.00925895e-07 1.85901044e-05
      2.66123025e-05 1.81981650e-05 -9.70396195e-06 -2.56067069e-05
      -2.77399686e-05 -1.90700448e-05 -3.45381704e-06 2.12479767e-06
      6.85666873e-06 -4.13247517e-06 -9.42333190e-06 -9.31106570e-06
      -8.01239639e-06 -6.50681022e-06 -5.98652377e-06 -6.06172762e-06
      -4.59847433e-06 -1.08115300e-05 -1.20518889e-05 -2.90395637e-05
      -4.06507024e-05 -3.89539346e-05 -3.53907635e-05 -2.54406314e-05
      -2.69304692e-05 -1.89785969e-05 -3.31939805e-06 4.02095657e-06
      6.33104401e-06 -6.59125726e-06 -2.04508142e-05 -1.34652273e-05
      -1.11306972e-05 6.78416336e-06 5.29303134e-06 -1.16159035e-05
      -1.86476391e-05 -1.32261785e-05 -1.01527712e-05 3.01197747e-06
      1.81494979e-05 2.44011153e-05 2.40415484e-05 1.83495213e-05
      2.07869016e-05 3.50457594e-05 3.60159138e-05 1.86907328e-05
      5.75141712e-06 7.73094996e-07 -1.68490023e-05 -3.67600915e-05
      -4.57147544e-05 -2.51150814e-05 1.48806666e-05 2.70734290e-05
      2.74907743e-05 1.17552881e-05 -2.96344460e-05 -4.73349974e-05
      -5.02880575e-05 -4.76117129e-05 -4.28496023e-05 -3.67948414e-05
      -2.35050284e-05 -9.03633008e-06 -2.61269338e-06 3.67407097e-06
      -6.43132626e-06 -2.12328941e-05 -3.57332283e-05 -3.53677278e-05
      -3.24167122e-05 -2.51727215e-05 -1.96529036e-05 -2.03191066e-05
      -3.63130675e-05 -3.39796752e-05 -2.61970035e-05 -1.00831958e-05
      1.85271040e-06 -8.27143867e-06 -3.10363066e-06 -1.73276180e-06
      3.85367599e-07 6.63181072e-06 -6.85355701e-07 1.22612363e-07
      1.12800376e-06 -4.93696825e-06 -1.72984783e-05 -2.24306023e-05
      -2.42909264e-05 -7.97695611e-06 -5.95949859e-06 -1.38451264e-06
      -3.33963499e-06 -3.71784836e-06 -6.39191830e-06 -1.16945885e-05
      -8.16393094e-06 -1.25880551e-05 -1.14540571e-05 -1.03372952e-06
      1.28120091e-05 1.41568935e-05 9.52949813e-06 -5.87636976e-07
      1.41677601e-05 1.05061272e-05 1.81211763e-05 9.12283303e-06
      7.66819812e-06 4.45047954e-06 -1.04495430e-05 -8.04158788e-07
      -2.93557719e-06 -8.59369607e-07 -6.72242550e-06 3.68722397e-07
      5.65354094e-06 1.09280400e-05 1.75194746e-05 1.46173388e-05
      2.29510829e-06 -1.86674861e-05 -2.77918334e-05 -2.11848528e-05
      -1.62467786e-05 -1.82917756e-05 -1.83971479e-05 -1.97395893e-05
      -2.09462032e-05 -1.58203020e-05 1.20080051e-06 1.75456917e-05
      2.50018384e-05 1.66980280e-05 7.76112847e-06 -6.10937786e-06
      -1.09417051e-05 -2.05783681e-06 -1.89747630e-06 7.23073617e-06
      1.13852384e-05 2.82380779e-06 -1.76477097e-05 -2.73437745e-05
      -2.81505272e-05 -1.29567652e-05 -6.95763390e-07 3.30978742e-06
      -3.95185316e-06 -1.18026355e-05 -1.98840862e-05 -1.62740289e-05
      -1.77753845e-05 -1.67232120e-05 -1.95512366e-05 -2.37064232e-05
      -2.16995049e-05 -2.69956818e-05 -1.97052850e-05 -2.90969729e-05
      -3.31886840e-05 -3.12015800e-05 -3.34775905e-05 -2.45009596e-05
      -1.90416285e-05 -8.08344248e-06 4.59152062e-07 -5.77988772e-07
      -7.46264561e-09 3.09764482e-06 3.26265808e-06 9.77404943e-06
      1.14241629e-05 7.41454733e-06 2.96485291e-06 3.01906493e-06
      -4.43327008e-06 -7.21782817e-06 -2.35535003e-06 1.88725789e-05
      3.32646487e-05 3.33835960e-05 2.96037870e-05 2.27684995e-05
      2.22769959e-05 2.88109786e-05 2.99373569e-05 2.01007297e-05
      5.01167415e-06 3.09997881e-06 -1.27025760e-05 -2.97299248e-05
      -3.26978807e-05 -6.42527402e-06 3.15221732e-05 3.64053994e-05
      3.03800025e-05 2.51130423e-05 -8.31037232e-06 -2.25802469e-05
      -2.86818777e-05 -3.59232072e-05 -3.42087515e-05 -2.98650848e-05
      -3.30286603e-05 -2.51092297e-05 -2.48568685e-05 -2.79855594e-05
      -3.73798357e-05 -4.79839800e-05 -5.18295892e-05 -4.90167404e-05
      -3.52903480e-05 -2.95173395e-05 -2.43815502e-05 -2.25789972e-05
      -3.55466545e-05 -3.66960776e-05 -3.52197676e-05 -2.33213941e-05
      -2.67176802e-05 -3.26851623e-05 -2.74787162e-05 -3.35392942e-05
      -2.91057040e-05 -3.29333780e-05 -3.55484954e-05 -3.28798633e-05
      -2.23371480e-05 -2.31085105e-05 -2.51569782e-05 -4.01229336e-05
      -4.29630854e-05 -3.96339055e-05 -3.69603331e-05 -3.63753243e-05
      -3.70849375e-05 -4.03511694e-05 -5.23958552e-05 -6.12219519e-05
      -6.47878405e-05 -6.53158568e-05 -5.95659985e-05 -4.86652752e-05
      -2.42436308e-05 -2.51603306e-05 -2.37920867e-05 -3.30860712e-05
      -2.22071358e-05 -1.92706411e-05 -9.30920123e-06 -8.21419871e-06
      -2.23586303e-05 -1.89789589e-05 -2.56627045e-05 -2.32144557e-05
      -2.00241520e-05 -1.73646240e-05 -1.41708679e-05 -1.56962033e-05
      -7.64858396e-06 2.01123294e-06 8.35091123e-06 7.86357396e-06
      -3.31449814e-06 -1.61463777e-05 -2.72808047e-05 -3.00944612e-05
      -1.60258041e-05 -1.90867249e-05 -2.39863657e-05 -2.95057398e-05
      -3.10675932e-05 -2.48627457e-05 -1.73109984e-05 -6.39298014e-06
      5.81926031e-07 -8.74563193e-06 -1.93084961e-05 -3.07678420e-05
      -2.57330485e-05 -1.15164939e-05 -9.60800116e-06 -9.67950564e-06
      -1.47921410e-05 -2.84708676e-05 -4.54156288e-05 -5.29156423e-05
      -5.60747212e-05 -3.77654833e-05 -2.61759687e-05 -1.77563888e-05
      -2.85482602e-05 -3.36568410e-05 -4.20963916e-05 -3.76575590e-05
      -3.73092626e-05 -3.37495985e-05 -3.91994399e-05 -4.52612803e-05
      -4.42102864e-05 -4.64278273e-05 -3.37138554e-05 -3.62004139e-05
      -3.74452247e-05 -3.56678393e-05 -3.19864703e-05 -2.08511701e-05
      -8.35924038e-06 -2.18004038e-06 5.66526842e-06 6.87564716e-06
      5.09481561e-06 3.72532440e-06 -4.24611244e-06 -4.50783409e-06
      -3.75518312e-06 1.23466589e-05 1.87004352e-05 2.04281587e-05
      1.94932963e-05 2.61539299e-05 3.38515747e-05 4.48519022e-05
      4.91482060e-05 4.48990686e-05 3.81606515e-05 3.05353933e-05
      3.42455241e-05 3.64973530e-05 3.54307522e-05 3.13532000e-05
      3.06926268e-05 2.80436143e-05 1.06790676e-05 -5.91822118e-06
      -1.19397737e-05 7.62288937e-06 4.02166297e-05 4.26602237e-05
      6.28422495e-05 6.43535677e-05 4.00985227e-05 3.16730948e-05
      2.68109507e-05 1.76676349e-05 1.74573124e-05 2.10527760e-05
      1.97562349e-05 1.62835768e-05 1.44100159e-05 1.22916499e-05
      1.17544096e-05 2.67156065e-06 -1.60353090e-06 -8.41232213e-06
      -4.58170234e-06 -1.11316240e-06 7.36534730e-06 8.72962300e-06
      1.52978919e-06 -8.21189474e-07 -6.24241511e-06 1.96612905e-06
      -3.32313971e-06 -1.02884478e-05 -1.75140576e-05 -2.92321365e-05
      -2.97457318e-05 -4.35176553e-05 -3.59296246e-05 -3.02342742e-05
      -1.83183147e-05 -1.04136498e-05 -6.05120840e-06 -8.77782350e-06
      -1.10417477e-05 -1.04339324e-05 -1.23476466e-05 -1.17751888e-05
      -8.26623636e-06 -2.14694592e-05 -2.94775364e-05 -3.56792480e-05
      -4.14010501e-05 -4.54228284e-05 -3.11815493e-05 -1.98316939e-05
      -4.76000105e-06 -7.60258763e-06 -8.90937281e-06 -2.11245351e-05
      -1.13640526e-05 -7.94333664e-06 3.14572094e-06 -5.48322362e-07
      6.20544427e-07 6.94542041e-06 1.90621608e-06 -4.21100231e-06
      -4.44121270e-06 -2.50057383e-06 7.69508915e-06 3.72523778e-06
      9.46527143e-06 1.81461382e-05 2.29840225e-05 2.40754434e-05
      1.04295259e-05 1.54153838e-06 -3.61754701e-06 -8.37633877e-07
      1.00676098e-05 4.30464388e-06 -9.83119321e-07 -8.54177506e-06
      -7.22926961e-06 -9.33776028e-06 -7.81438575e-06 -2.41767680e-06
      -1.11059776e-07 -3.08521362e-06 -1.00989892e-05 -1.83670090e-05
      -1.36406261e-05 -1.48967695e-06 2.88383080e-06 -1.49715595e-06
      -4.78413858e-06 -1.43830603e-05 -1.96463570e-05 -2.05325778e-05
      -2.60775869e-05 -7.12872497e-06 1.45989213e-06 1.45871236e-05
      7.56239797e-06 -2.73005844e-06 -9.62574541e-06 -3.16801970e-06
      -1.11990494e-06 5.84872350e-06 4.24320660e-06 -1.17644015e-06
      -7.51330344e-06 -1.22896972e-05 -1.81192354e-06 -4.10899565e-06
      -7.41902932e-06 -1.10964793e-05 -1.31943651e-07 1.34757356e-05
      1.30389672e-05 1.18875087e-05 1.80560510e-05 1.30533890e-05
      2.32153639e-06 -8.45300292e-06 5.07590130e-06 8.68680036e-06
      1.71722204e-05 2.76986812e-05 3.16585356e-05 3.89550478e-05
      4.15760442e-05 4.02696787e-05 4.41292832e-05 5.23024173e-05
      4.84680641e-05 4.27869090e-05 3.24071625e-05 2.07026169e-05
      3.05411486e-05 3.79651137e-05 4.32892011e-05 4.62488570e-05
      4.03341037e-05 3.73213916e-05 2.19292506e-05 7.63615481e-06
      1.92413540e-06 1.48184499e-05 4.75142187e-05 4.59515395e-05
      6.51853479e-05 6.65591579e-05 4.44526158e-05 3.57138306e-05
      3.38056198e-05 2.82419260e-05 3.19713436e-05 3.37511883e-05
      3.69090158e-05 3.23060958e-05 2.57629144e-05 1.56360875e-05
      7.38179506e-06 -5.98109125e-07 -3.52001251e-07 -4.25473991e-06
      -7.73731426e-06 4.17413139e-06 1.43261486e-05 1.73413810e-05
      7.41047870e-06 2.07519633e-06 -4.66008760e-06 1.92516927e-06
      -4.18357757e-07 -7.58886517e-06 -1.07447813e-05 -2.27448800e-05
      -2.90370444e-05 -4.00775207e-05 -3.84389568e-05 -3.47052155e-05
      -1.32557434e-05 -3.40639258e-06 7.52242067e-06 9.88523607e-06
      1.48262443e-05 1.44928299e-05 1.43793059e-05 1.48327999e-05
      1.41681285e-05 -2.08672859e-07 -1.71802876e-05 -2.35606622e-05
      -2.92357963e-05 -2.86242539e-05 -1.45562772e-05 -1.62399863e-06
      1.32176883e-05 1.41426553e-05 6.28410271e-06 3.21145848e-07
      3.21562948e-06 9.98130599e-06 1.79034996e-05 2.06432542e-05
      2.09037971e-05 2.85977512e-05 2.51114925e-05 2.52430309e-05
      2.43255890e-05 2.29054767e-05 2.83826448e-05 2.96325325e-05
      3.05169287e-05 4.02516962e-05 4.24003301e-05 4.65379599e-05
      3.78433324e-05 3.32070449e-05 2.95684094e-05 2.85981205e-05
      3.55961129e-05 3.15408288e-05 1.81444284e-05 1.44549686e-05
      1.63248078e-05 1.38462774e-05 1.20877221e-05 1.48395720e-05
      1.57132417e-05 8.83044868e-06 4.70043369e-06 -3.22897364e-07
      1.30036979e-05 2.20627717e-05 2.59731041e-05 2.52134359e-05
      1.82760286e-05 1.19626557e-05 5.16764089e-07 -1.16221975e-06
      -5.85615817e-06 6.88544969e-06 1.35616083e-05 3.26012669e-05
      2.35979933e-05 1.43164179e-05 4.54117298e-06 1.18665885e-05
      1.51544382e-05 2.59273002e-05 2.54038241e-05 2.14689135e-05
      1.14166005e-05 -2.85871829e-06 -4.90878847e-07 -7.52111782e-06
      2.62202889e-06 -3.42295698e-06 1.01441683e-05 1.77769798e-05
      1.53978763e-05 1.25398929e-05 1.63983459e-05 1.43824400e-05
      -4.40017584e-06 1.01510295e-06 2.46330183e-06 9.34237141e-06
      1.23800482e-05 2.34393738e-05 3.69752379e-05 4.09798558e-05
      3.69907175e-05 3.44124564e-05 3.56998898e-05 3.82869039e-05
      4.05932224e-05 3.29114082e-05 2.13521053e-05 7.43705050e-06
      1.70264520e-05 2.58102427e-05 2.98057184e-05 3.67776192e-05
      3.83333063e-05 3.29713876e-05 1.20990735e-05 7.70835686e-06
      7.85981319e-06 2.42047863e-05 5.58628344e-05 6.14951714e-05</_></support_vectors>
  <decision_functions>
    <_>
      <sv_count>1</sv_count>
      <rho>1.6078295652700789e+00</rho>
      <alpha>
        1.</alpha>
      <index>
        0</index></_></decision_functions></my_svm>
</opencv_storage>
